FANN_FLO_2.1
num_layers=6
learning_rate=0.700000
connection_rate=1.000000
network_type=0
learning_momentum=0.000000
training_algorithm=2
train_error_function=1
train_stop_function=0
cascade_output_change_fraction=0.010000
quickprop_decay=-0.000100
quickprop_mu=1.750000
rprop_increase_factor=1.200000
rprop_decrease_factor=0.500000
rprop_delta_min=0.000000
rprop_delta_max=50.000000
rprop_delta_zero=0.100000
cascade_output_stagnation_epochs=12
cascade_candidate_change_fraction=0.010000
cascade_candidate_stagnation_epochs=12
cascade_max_out_epochs=150
cascade_min_out_epochs=50
cascade_max_cand_epochs=150
cascade_min_cand_epochs=50
cascade_num_candidate_groups=2
bit_fail_limit=3.49999994039535520000e-001
cascade_candidate_limit=1.00000000000000000000e+003
cascade_weight_multiplier=4.00000005960464480000e-001
cascade_activation_functions_count=10
cascade_activation_functions=3 5 7 8 10 11 14 15 16 17 
cascade_activation_steepnesses_count=4
cascade_activation_steepnesses=2.50000000000000000000e-001 5.00000000000000000000e-001 7.50000000000000000000e-001 1.00000000000000000000e+000 
layer_sizes=226 81 61 41 11 6 
scale_included=0
neurons (num_inputs, activation_function, activation_steepness)=(0, 0, 0.00000000000000000000e+000) (0, 0, 0.00000000000000000000e+000) (0, 0, 0.00000000000000000000e+000) (0, 0, 0.00000000000000000000e+000) (0, 0, 0.00000000000000000000e+000) (0, 0, 0.00000000000000000000e+000) (0, 0, 0.00000000000000000000e+000) (0, 0, 0.00000000000000000000e+000) (0, 0, 0.00000000000000000000e+000) (0, 0, 0.00000000000000000000e+000) (0, 0, 0.00000000000000000000e+000) (0, 0, 0.00000000000000000000e+000) (0, 0, 0.00000000000000000000e+000) (0, 0, 0.00000000000000000000e+000) (0, 0, 0.00000000000000000000e+000) (0, 0, 0.00000000000000000000e+000) (0, 0, 0.00000000000000000000e+000) (0, 0, 0.00000000000000000000e+000) (0, 0, 0.00000000000000000000e+000) (0, 0, 0.00000000000000000000e+000) (0, 0, 0.00000000000000000000e+000) (0, 0, 0.00000000000000000000e+000) (0, 0, 0.00000000000000000000e+000) (0, 0, 0.00000000000000000000e+000) (0, 0, 0.00000000000000000000e+000) (0, 0, 0.00000000000000000000e+000) (0, 0, 0.00000000000000000000e+000) (0, 0, 0.00000000000000000000e+000) (0, 0, 0.00000000000000000000e+000) (0, 0, 0.00000000000000000000e+000) (0, 0, 0.00000000000000000000e+000) (0, 0, 0.00000000000000000000e+000) (0, 0, 0.00000000000000000000e+000) (0, 0, 0.00000000000000000000e+000) (0, 0, 0.00000000000000000000e+000) (0, 0, 0.00000000000000000000e+000) (0, 0, 0.00000000000000000000e+000) (0, 0, 0.00000000000000000000e+000) (0, 0, 0.00000000000000000000e+000) (0, 0, 0.00000000000000000000e+000) (0, 0, 0.00000000000000000000e+000) (0, 0, 0.00000000000000000000e+000) (0, 0, 0.00000000000000000000e+000) (0, 0, 0.00000000000000000000e+000) (0, 0, 0.00000000000000000000e+000) (0, 0, 0.00000000000000000000e+000) (0, 0, 0.00000000000000000000e+000) (0, 0, 0.00000000000000000000e+000) (0, 0, 0.00000000000000000000e+000) (0, 0, 0.00000000000000000000e+000) (0, 0, 0.00000000000000000000e+000) (0, 0, 0.00000000000000000000e+000) (0, 0, 0.00000000000000000000e+000) (0, 0, 0.00000000000000000000e+000) (0, 0, 0.00000000000000000000e+000) (0, 0, 0.00000000000000000000e+000) (0, 0, 0.00000000000000000000e+000) (0, 0, 0.00000000000000000000e+000) (0, 0, 0.00000000000000000000e+000) (0, 0, 0.00000000000000000000e+000) (0, 0, 0.00000000000000000000e+000) (0, 0, 0.00000000000000000000e+000) (0, 0, 0.00000000000000000000e+000) (0, 0, 0.00000000000000000000e+000) (0, 0, 0.00000000000000000000e+000) (0, 0, 0.00000000000000000000e+000) (0, 0, 0.00000000000000000000e+000) (0, 0, 0.00000000000000000000e+000) (0, 0, 0.00000000000000000000e+000) (0, 0, 0.00000000000000000000e+000) (0, 0, 0.00000000000000000000e+000) (0, 0, 0.00000000000000000000e+000) (0, 0, 0.00000000000000000000e+000) (0, 0, 0.00000000000000000000e+000) (0, 0, 0.00000000000000000000e+000) (0, 0, 0.00000000000000000000e+000) (0, 0, 0.00000000000000000000e+000) (0, 0, 0.00000000000000000000e+000) (0, 0, 0.00000000000000000000e+000) (0, 0, 0.00000000000000000000e+000) (0, 0, 0.00000000000000000000e+000) (0, 0, 0.00000000000000000000e+000) (0, 0, 0.00000000000000000000e+000) (0, 0, 0.00000000000000000000e+000) (0, 0, 0.00000000000000000000e+000) (0, 0, 0.00000000000000000000e+000) (0, 0, 0.00000000000000000000e+000) (0, 0, 0.00000000000000000000e+000) (0, 0, 0.00000000000000000000e+000) (0, 0, 0.00000000000000000000e+000) (0, 0, 0.00000000000000000000e+000) (0, 0, 0.00000000000000000000e+000) (0, 0, 0.00000000000000000000e+000) (0, 0, 0.00000000000000000000e+000) (0, 0, 0.00000000000000000000e+000) (0, 0, 0.00000000000000000000e+000) (0, 0, 0.00000000000000000000e+000) (0, 0, 0.00000000000000000000e+000) (0, 0, 0.00000000000000000000e+000) (0, 0, 0.00000000000000000000e+000) (0, 0, 0.00000000000000000000e+000) (0, 0, 0.00000000000000000000e+000) (0, 0, 0.00000000000000000000e+000) (0, 0, 0.00000000000000000000e+000) (0, 0, 0.00000000000000000000e+000) (0, 0, 0.00000000000000000000e+000) (0, 0, 0.00000000000000000000e+000) (0, 0, 0.00000000000000000000e+000) (0, 0, 0.00000000000000000000e+000) (0, 0, 0.00000000000000000000e+000) (0, 0, 0.00000000000000000000e+000) (0, 0, 0.00000000000000000000e+000) (0, 0, 0.00000000000000000000e+000) (0, 0, 0.00000000000000000000e+000) (0, 0, 0.00000000000000000000e+000) (0, 0, 0.00000000000000000000e+000) (0, 0, 0.00000000000000000000e+000) (0, 0, 0.00000000000000000000e+000) (0, 0, 0.00000000000000000000e+000) (0, 0, 0.00000000000000000000e+000) (0, 0, 0.00000000000000000000e+000) (0, 0, 0.00000000000000000000e+000) (0, 0, 0.00000000000000000000e+000) (0, 0, 0.00000000000000000000e+000) (0, 0, 0.00000000000000000000e+000) (0, 0, 0.00000000000000000000e+000) (0, 0, 0.00000000000000000000e+000) (0, 0, 0.00000000000000000000e+000) (0, 0, 0.00000000000000000000e+000) (0, 0, 0.00000000000000000000e+000) (0, 0, 0.00000000000000000000e+000) (0, 0, 0.00000000000000000000e+000) (0, 0, 0.00000000000000000000e+000) (0, 0, 0.00000000000000000000e+000) (0, 0, 0.00000000000000000000e+000) (0, 0, 0.00000000000000000000e+000) (0, 0, 0.00000000000000000000e+000) (0, 0, 0.00000000000000000000e+000) (0, 0, 0.00000000000000000000e+000) (0, 0, 0.00000000000000000000e+000) (0, 0, 0.00000000000000000000e+000) (0, 0, 0.00000000000000000000e+000) (0, 0, 0.00000000000000000000e+000) (0, 0, 0.00000000000000000000e+000) (0, 0, 0.00000000000000000000e+000) (0, 0, 0.00000000000000000000e+000) (0, 0, 0.00000000000000000000e+000) (0, 0, 0.00000000000000000000e+000) (0, 0, 0.00000000000000000000e+000) (0, 0, 0.00000000000000000000e+000) (0, 0, 0.00000000000000000000e+000) (0, 0, 0.00000000000000000000e+000) (0, 0, 0.00000000000000000000e+000) (0, 0, 0.00000000000000000000e+000) (0, 0, 0.00000000000000000000e+000) (0, 0, 0.00000000000000000000e+000) (0, 0, 0.00000000000000000000e+000) (0, 0, 0.00000000000000000000e+000) (0, 0, 0.00000000000000000000e+000) (0, 0, 0.00000000000000000000e+000) (0, 0, 0.00000000000000000000e+000) (0, 0, 0.00000000000000000000e+000) (0, 0, 0.00000000000000000000e+000) (0, 0, 0.00000000000000000000e+000) (0, 0, 0.00000000000000000000e+000) (0, 0, 0.00000000000000000000e+000) (0, 0, 0.00000000000000000000e+000) (0, 0, 0.00000000000000000000e+000) (0, 0, 0.00000000000000000000e+000) (0, 0, 0.00000000000000000000e+000) (0, 0, 0.00000000000000000000e+000) (0, 0, 0.00000000000000000000e+000) (0, 0, 0.00000000000000000000e+000) (0, 0, 0.00000000000000000000e+000) (0, 0, 0.00000000000000000000e+000) (0, 0, 0.00000000000000000000e+000) (0, 0, 0.00000000000000000000e+000) (0, 0, 0.00000000000000000000e+000) (0, 0, 0.00000000000000000000e+000) (0, 0, 0.00000000000000000000e+000) (0, 0, 0.00000000000000000000e+000) (0, 0, 0.00000000000000000000e+000) (0, 0, 0.00000000000000000000e+000) (0, 0, 0.00000000000000000000e+000) (0, 0, 0.00000000000000000000e+000) (0, 0, 0.00000000000000000000e+000) (0, 0, 0.00000000000000000000e+000) (0, 0, 0.00000000000000000000e+000) (0, 0, 0.00000000000000000000e+000) (0, 0, 0.00000000000000000000e+000) (0, 0, 0.00000000000000000000e+000) (0, 0, 0.00000000000000000000e+000) (0, 0, 0.00000000000000000000e+000) (0, 0, 0.00000000000000000000e+000) (0, 0, 0.00000000000000000000e+000) (0, 0, 0.00000000000000000000e+000) (0, 0, 0.00000000000000000000e+000) (0, 0, 0.00000000000000000000e+000) (0, 0, 0.00000000000000000000e+000) (0, 0, 0.00000000000000000000e+000) (0, 0, 0.00000000000000000000e+000) (0, 0, 0.00000000000000000000e+000) (0, 0, 0.00000000000000000000e+000) (0, 0, 0.00000000000000000000e+000) (0, 0, 0.00000000000000000000e+000) (0, 0, 0.00000000000000000000e+000) (0, 0, 0.00000000000000000000e+000) (0, 0, 0.00000000000000000000e+000) (0, 0, 0.00000000000000000000e+000) (0, 0, 0.00000000000000000000e+000) (0, 0, 0.00000000000000000000e+000) (0, 0, 0.00000000000000000000e+000) (0, 0, 0.00000000000000000000e+000) (0, 0, 0.00000000000000000000e+000) (0, 0, 0.00000000000000000000e+000) (0, 0, 0.00000000000000000000e+000) (0, 0, 0.00000000000000000000e+000) (0, 0, 0.00000000000000000000e+000) (0, 0, 0.00000000000000000000e+000) (0, 0, 0.00000000000000000000e+000) (0, 0, 0.00000000000000000000e+000) (0, 0, 0.00000000000000000000e+000) (0, 0, 0.00000000000000000000e+000) (0, 0, 0.00000000000000000000e+000) (0, 0, 0.00000000000000000000e+000) (0, 0, 0.00000000000000000000e+000) (226, 6, 1.00000000000000000000e+000) (226, 6, 1.00000000000000000000e+000) (226, 6, 1.00000000000000000000e+000) (226, 6, 1.00000000000000000000e+000) (226, 6, 1.00000000000000000000e+000) (226, 6, 1.00000000000000000000e+000) (226, 6, 1.00000000000000000000e+000) (226, 6, 1.00000000000000000000e+000) (226, 6, 1.00000000000000000000e+000) (226, 6, 1.00000000000000000000e+000) (226, 6, 1.00000000000000000000e+000) (226, 6, 1.00000000000000000000e+000) (226, 6, 1.00000000000000000000e+000) (226, 6, 1.00000000000000000000e+000) (226, 6, 1.00000000000000000000e+000) (226, 6, 1.00000000000000000000e+000) (226, 6, 1.00000000000000000000e+000) (226, 6, 1.00000000000000000000e+000) (226, 6, 1.00000000000000000000e+000) (226, 6, 1.00000000000000000000e+000) (226, 6, 1.00000000000000000000e+000) (226, 6, 1.00000000000000000000e+000) (226, 6, 1.00000000000000000000e+000) (226, 6, 1.00000000000000000000e+000) (226, 6, 1.00000000000000000000e+000) (226, 6, 1.00000000000000000000e+000) (226, 6, 1.00000000000000000000e+000) (226, 6, 1.00000000000000000000e+000) (226, 6, 1.00000000000000000000e+000) (226, 6, 1.00000000000000000000e+000) (226, 6, 1.00000000000000000000e+000) (226, 6, 1.00000000000000000000e+000) (226, 6, 1.00000000000000000000e+000) (226, 6, 1.00000000000000000000e+000) (226, 6, 1.00000000000000000000e+000) (226, 6, 1.00000000000000000000e+000) (226, 6, 1.00000000000000000000e+000) (226, 6, 1.00000000000000000000e+000) (226, 6, 1.00000000000000000000e+000) (226, 6, 1.00000000000000000000e+000) (226, 6, 1.00000000000000000000e+000) (226, 6, 1.00000000000000000000e+000) (226, 6, 1.00000000000000000000e+000) (226, 6, 1.00000000000000000000e+000) (226, 6, 1.00000000000000000000e+000) (226, 6, 1.00000000000000000000e+000) (226, 6, 1.00000000000000000000e+000) (226, 6, 1.00000000000000000000e+000) (226, 6, 1.00000000000000000000e+000) (226, 6, 1.00000000000000000000e+000) (226, 6, 1.00000000000000000000e+000) (226, 6, 1.00000000000000000000e+000) (226, 6, 1.00000000000000000000e+000) (226, 6, 1.00000000000000000000e+000) (226, 6, 1.00000000000000000000e+000) (226, 6, 1.00000000000000000000e+000) (226, 6, 1.00000000000000000000e+000) (226, 6, 1.00000000000000000000e+000) (226, 6, 1.00000000000000000000e+000) (226, 6, 1.00000000000000000000e+000) (226, 6, 1.00000000000000000000e+000) (226, 6, 1.00000000000000000000e+000) (226, 6, 1.00000000000000000000e+000) (226, 6, 1.00000000000000000000e+000) (226, 6, 1.00000000000000000000e+000) (226, 6, 1.00000000000000000000e+000) (226, 6, 1.00000000000000000000e+000) (226, 6, 1.00000000000000000000e+000) (226, 6, 1.00000000000000000000e+000) (226, 6, 1.00000000000000000000e+000) (226, 6, 1.00000000000000000000e+000) (226, 6, 1.00000000000000000000e+000) (226, 6, 1.00000000000000000000e+000) (226, 6, 1.00000000000000000000e+000) (226, 6, 1.00000000000000000000e+000) (226, 6, 1.00000000000000000000e+000) (226, 6, 1.00000000000000000000e+000) (226, 6, 1.00000000000000000000e+000) (226, 6, 1.00000000000000000000e+000) (226, 6, 1.00000000000000000000e+000) (0, 6, 1.00000000000000000000e+000) (81, 6, 1.00000000000000000000e+000) (81, 6, 1.00000000000000000000e+000) (81, 6, 1.00000000000000000000e+000) (81, 6, 1.00000000000000000000e+000) (81, 6, 1.00000000000000000000e+000) (81, 6, 1.00000000000000000000e+000) (81, 6, 1.00000000000000000000e+000) (81, 6, 1.00000000000000000000e+000) (81, 6, 1.00000000000000000000e+000) (81, 6, 1.00000000000000000000e+000) (81, 6, 1.00000000000000000000e+000) (81, 6, 1.00000000000000000000e+000) (81, 6, 1.00000000000000000000e+000) (81, 6, 1.00000000000000000000e+000) (81, 6, 1.00000000000000000000e+000) (81, 6, 1.00000000000000000000e+000) (81, 6, 1.00000000000000000000e+000) (81, 6, 1.00000000000000000000e+000) (81, 6, 1.00000000000000000000e+000) (81, 6, 1.00000000000000000000e+000) (81, 6, 1.00000000000000000000e+000) (81, 6, 1.00000000000000000000e+000) (81, 6, 1.00000000000000000000e+000) (81, 6, 1.00000000000000000000e+000) (81, 6, 1.00000000000000000000e+000) (81, 6, 1.00000000000000000000e+000) (81, 6, 1.00000000000000000000e+000) (81, 6, 1.00000000000000000000e+000) (81, 6, 1.00000000000000000000e+000) (81, 6, 1.00000000000000000000e+000) (81, 6, 1.00000000000000000000e+000) (81, 6, 1.00000000000000000000e+000) (81, 6, 1.00000000000000000000e+000) (81, 6, 1.00000000000000000000e+000) (81, 6, 1.00000000000000000000e+000) (81, 6, 1.00000000000000000000e+000) (81, 6, 1.00000000000000000000e+000) (81, 6, 1.00000000000000000000e+000) (81, 6, 1.00000000000000000000e+000) (81, 6, 1.00000000000000000000e+000) (81, 6, 1.00000000000000000000e+000) (81, 6, 1.00000000000000000000e+000) (81, 6, 1.00000000000000000000e+000) (81, 6, 1.00000000000000000000e+000) (81, 6, 1.00000000000000000000e+000) (81, 6, 1.00000000000000000000e+000) (81, 6, 1.00000000000000000000e+000) (81, 6, 1.00000000000000000000e+000) (81, 6, 1.00000000000000000000e+000) (81, 6, 1.00000000000000000000e+000) (81, 6, 1.00000000000000000000e+000) (81, 6, 1.00000000000000000000e+000) (81, 6, 1.00000000000000000000e+000) (81, 6, 1.00000000000000000000e+000) (81, 6, 1.00000000000000000000e+000) (81, 6, 1.00000000000000000000e+000) (81, 6, 1.00000000000000000000e+000) (81, 6, 1.00000000000000000000e+000) (81, 6, 1.00000000000000000000e+000) (81, 6, 1.00000000000000000000e+000) (0, 6, 1.00000000000000000000e+000) (61, 6, 1.00000000000000000000e+000) (61, 6, 1.00000000000000000000e+000) (61, 6, 1.00000000000000000000e+000) (61, 6, 1.00000000000000000000e+000) (61, 6, 1.00000000000000000000e+000) (61, 6, 1.00000000000000000000e+000) (61, 6, 1.00000000000000000000e+000) (61, 6, 1.00000000000000000000e+000) (61, 6, 1.00000000000000000000e+000) (61, 6, 1.00000000000000000000e+000) (61, 6, 1.00000000000000000000e+000) (61, 6, 1.00000000000000000000e+000) (61, 6, 1.00000000000000000000e+000) (61, 6, 1.00000000000000000000e+000) (61, 6, 1.00000000000000000000e+000) (61, 6, 1.00000000000000000000e+000) (61, 6, 1.00000000000000000000e+000) (61, 6, 1.00000000000000000000e+000) (61, 6, 1.00000000000000000000e+000) (61, 6, 1.00000000000000000000e+000) (61, 6, 1.00000000000000000000e+000) (61, 6, 1.00000000000000000000e+000) (61, 6, 1.00000000000000000000e+000) (61, 6, 1.00000000000000000000e+000) (61, 6, 1.00000000000000000000e+000) (61, 6, 1.00000000000000000000e+000) (61, 6, 1.00000000000000000000e+000) (61, 6, 1.00000000000000000000e+000) (61, 6, 1.00000000000000000000e+000) (61, 6, 1.00000000000000000000e+000) (61, 6, 1.00000000000000000000e+000) (61, 6, 1.00000000000000000000e+000) (61, 6, 1.00000000000000000000e+000) (61, 6, 1.00000000000000000000e+000) (61, 6, 1.00000000000000000000e+000) (61, 6, 1.00000000000000000000e+000) (61, 6, 1.00000000000000000000e+000) (61, 6, 1.00000000000000000000e+000) (61, 6, 1.00000000000000000000e+000) (61, 6, 1.00000000000000000000e+000) (0, 6, 1.00000000000000000000e+000) (41, 6, 1.00000000000000000000e+000) (41, 6, 1.00000000000000000000e+000) (41, 6, 1.00000000000000000000e+000) (41, 6, 1.00000000000000000000e+000) (41, 6, 1.00000000000000000000e+000) (41, 6, 1.00000000000000000000e+000) (41, 6, 1.00000000000000000000e+000) (41, 6, 1.00000000000000000000e+000) (41, 6, 1.00000000000000000000e+000) (41, 6, 1.00000000000000000000e+000) (0, 6, 1.00000000000000000000e+000) (11, 4, 1.00000000000000000000e+000) (11, 4, 1.00000000000000000000e+000) (11, 4, 1.00000000000000000000e+000) (11, 4, 1.00000000000000000000e+000) (11, 4, 1.00000000000000000000e+000) (0, 4, 1.00000000000000000000e+000) 
connections (connected_to_neuron, weight)=(0, 1.00338935852050780000e+000) (1, 1.13070666790008540000e+000) (2, 8.48755359649658200000e-001) (3, -2.34888046979904170000e-002) (4, -1.01524189114570620000e-001) (5, 7.40768909454345700000e-001) (6, 3.94101254642009740000e-002) (7, 7.50031769275665280000e-001) (8, 4.23742204904556270000e-001) (9, 5.44680714607238770000e-001) (10, 9.16501879692077640000e-001) (11, 1.52841067314147950000e+000) (12, 7.66172766685485840000e-001) (13, 9.65612471103668210000e-001) (14, 1.75448405742645260000e+000) (15, 1.02562654018402100000e+000) (16, 4.00873035192489620000e-001) (17, 3.85858118534088130000e-001) (18, 2.57853329181671140000e-001) (19, 8.62293779850006100000e-001) (20, 4.95682865381240840000e-001) (21, 2.57909804582595830000e-001) (22, 1.40782082080841060000e+000) (23, 3.57236653566360470000e-001) (24, 1.06078016757965090000e+000) (25, 1.58534109592437740000e+000) (26, 1.02297401428222660000e+000) (27, 1.00004446506500240000e+000) (28, 3.49178910255432130000e-001) (29, 9.86071884632110600000e-001) (30, 3.31690400838851930000e-001) (31, 6.75454974174499510000e-001) (32, 3.59303504228591920000e-001) (33, 1.16028392314910890000e+000) (34, 3.25988471508026120000e-001) (35, 2.95632660388946530000e-001) (36, 1.34792357683181760000e-001) (37, 3.78461629152297970000e-001) (38, 1.07728183269500730000e+000) (39, 6.41754508018493650000e-001) (40, 3.80318701267242430000e-001) (41, 6.09003067016601560000e-001) (42, 7.87630379199981690000e-001) (43, 4.13690984249114990000e-001) (44, 1.84193670749664310000e-001) (45, 3.81884902715682980000e-001) (46, 6.08182191848754880000e-001) (47, 8.26751410961151120000e-001) (48, 3.69584448635578160000e-002) (49, 1.33810296654701230000e-001) (50, 8.51539671421051030000e-001) (51, 2.65006989240646360000e-001) (52, 7.41188466548919680000e-001) (53, 4.68361884355545040000e-001) (54, 7.37716555595397950000e-001) (55, 2.28353798389434810000e-001) (56, 2.00858160853385930000e-001) (57, 5.53166747093200680000e-001) (58, 4.21066612005233760000e-001) (59, -2.89062678813934330000e-001) (60, 7.97685027122497560000e-001) (61, 1.34222626686096190000e+000) (62, 8.44372689723968510000e-001) (63, -1.06080016121268270000e-002) (64, 9.62852984666824340000e-002) (65, 2.96062499284744260000e-001) (66, 3.31047326326370240000e-001) (67, 2.29552701115608220000e-001) (68, 5.46713173389434810000e-001) (69, 4.02828961610794070000e-001) (70, -4.21762883663177490000e-001) (71, 3.51009994745254520000e-001) (72, 1.57322501763701440000e-004) (73, -2.91956573724746700000e-001) (74, -4.52238976955413820000e-001) (75, 5.23510158061981200000e-001) (76, 1.40638029575347900000e+000) (77, 3.22626262903213500000e-001) (78, 6.42229557037353520000e-001) (79, 2.06591784954071040000e-001) (80, 8.44373106956481930000e-001) (81, 3.23770552873611450000e-001) (82, 1.21568632125854490000e+000) (83, 6.62398576736450200000e-001) (84, 1.05790412425994870000e+000) (85, 5.11197984218597410000e-001) (86, 2.95070588588714600000e-001) (87, -3.45583446323871610000e-003) (88, -5.09481787681579590000e-001) (89, 3.85414481163024900000e-001) (90, 4.35434967279434200000e-001) (91, 9.34254050254821780000e-001) (92, 6.97100639343261720000e-001) (93, 7.93256938457489010000e-001) (94, 8.29495668411254880000e-001) (95, 1.46276557445526120000e+000) (96, 9.10760879516601560000e-001) (97, 4.99033510684967040000e-001) (98, 9.95673477649688720000e-001) (99, -2.71756023168563840000e-001) (100, -3.69229257106781010000e-001) (101, 4.54989045858383180000e-001) (102, 7.18806087970733640000e-001) (103, 5.41525244712829590000e-001) (104, -2.47011378407478330000e-001) (105, 2.62995749711990360000e-001) (106, 1.09459245204925540000e+000) (107, 9.53050673007965090000e-001) (108, 6.69972181320190430000e-001) (109, 9.60471034049987790000e-001) (110, 7.80387148261070250000e-002) (111, 1.10129106044769290000e+000) (112, 2.86148220300674440000e-001) (113, 6.54588520526885990000e-001) (114, 9.69092249870300290000e-001) (115, 5.87784409523010250000e-001) (116, -1.32248038426041600000e-002) (117, -2.12565064430236820000e-002) (118, 7.72769868373870850000e-001) (119, -9.72892493009567260000e-002) (120, 5.58066606521606450000e-001) (121, 1.25162482261657710000e+000) (122, 9.61503386497497560000e-001) (123, 1.62603512406349180000e-001) (124, 4.11223262548446660000e-001) (125, 9.74789798259735110000e-001) (126, 6.71576738357543950000e-001) (127, 1.83778643608093260000e-001) (128, 5.16684710979461670000e-001) (129, 6.09682142734527590000e-001) (130, 3.65010142326354980000e-001) (131, 3.17181557416915890000e-001) (132, -1.38937622308731080000e-001) (133, -1.03349529206752780000e-001) (134, 5.52635192871093750000e-001) (135, 3.16265076398849490000e-001) (136, 6.78948044776916500000e-001) (137, 6.16235196590423580000e-001) (138, -1.64549097418785100000e-001) (139, 3.82304012775421140000e-001) (140, 4.49012517929077150000e-001) (141, 8.43652427196502690000e-001) (142, 2.88872599601745610000e-001) (143, 2.45744809508323670000e-002) (144, 2.90765255689620970000e-001) (145, 5.44501207768917080000e-002) (146, 6.70260429382324220000e-001) (147, 4.92789149284362790000e-001) (148, 1.37863934040069580000e-001) (149, -3.92522037029266360000e-001) (150, 3.75647276639938350000e-001) (151, 1.34643673896789550000e+000) (152, 1.01032817363739010000e+000) (153, 1.58332601189613340000e-001) (154, 4.28209662437438960000e-001) (155, 9.28313851356506350000e-001) (156, -2.72943526506423950000e-002) (157, 6.96260392665863040000e-001) (158, 8.05702388286590580000e-001) (159, 4.18585747480392460000e-001) (160, 1.52516618371009830000e-001) (161, -1.61261364817619320000e-001) (162, 6.11994504928588870000e-001) (163, -2.69996911287307740000e-001) (164, -3.76023530960083010000e-001) (165, 6.08996808528900150000e-001) (166, 1.10030269622802730000e+000) (167, 2.42008879780769350000e-001) (168, 3.19060385227203370000e-001) (169, 5.92074334621429440000e-001) (170, -6.39873836189508440000e-003) (171, 9.82095360755920410000e-001) (172, 7.22574532032012940000e-001) (173, 6.54927670955657960000e-001) (174, 8.06843519210815430000e-001) (175, 2.76749908924102780000e-001) (176, 2.16273948550224300000e-001) (177, 3.16705584526062010000e-001) (178, 2.54158586263656620000e-001) (179, 5.60256950557231900000e-002) (180, 6.00270271301269530000e-001) (181, -1.53182789683341980000e-001) (182, -1.83207660913467410000e-001) (183, 4.54982072114944460000e-001) (184, 1.03586375713348390000e+000) (185, 1.09475672245025630000e+000) (186, 9.60415303707122800000e-001) (187, 1.21463000774383540000e+000) (188, 1.54357135295867920000e+000) (189, 9.46411788463592530000e-001) (190, 1.05463540554046630000e+000) (191, 3.08241695165634160000e-001) (192, 3.89880081638693810000e-003) (193, 2.27416232228279110000e-001) (194, 1.07874488830566410000e+000) (195, -1.72655045986175540000e-001) (196, -3.96980375051498410000e-001) (197, 3.73906672000885010000e-001) (198, 6.21091807261109350000e-003) (199, -2.10414201021194460000e-001) (200, 8.87025594711303710000e-001) (201, 5.72150349617004390000e-001) (202, 4.27664756774902340000e-001) (203, 6.92440420389175420000e-002) (204, 5.10119616985321040000e-001) (205, 4.66627836227416990000e-001) (206, -3.38620133697986600000e-002) (207, 7.98673033714294430000e-001) (208, -1.01272977190092210000e-004) (209, 2.38130986690521240000e-001) (210, 4.44922208786010740000e-001) (211, 9.40497636795043950000e-001) (212, 1.06104746460914610000e-001) (213, 4.10561919212341310000e-001) (214, -6.57285809516906740000e-001) (215, -5.54302692413330080000e-001) (216, -3.93160551786422730000e-001) (217, -4.61618453264236450000e-001) (218, 6.46043002605438230000e-001) (219, 5.08004367351531980000e-001) (220, 1.03871774673461910000e+000) (221, 6.28349542617797850000e-001) (222, 9.50896263122558590000e-001) (223, 3.05656343698501590000e-001) (224, 7.02719509601593020000e-001) (225, -7.36409842967987060000e-001) (0, -2.21641272306442260000e-001) (1, -5.96791386604309080000e-001) (2, -2.08280727267265320000e-001) (3, -5.80442905426025390000e-001) (4, 3.65899056196212770000e-001) (5, 8.01760017871856690000e-001) (6, 7.30894505977630620000e-001) (7, 7.94237613677978520000e-001) (8, 2.80941963195800780000e-001) (9, 1.92804820835590360000e-002) (10, 1.08715915679931640000e+000) (11, 5.32222650945186610000e-002) (12, -1.37168448418378830000e-002) (13, 4.54843729734420780000e-001) (14, 3.34460347890853880000e-001) (15, 6.44297063350677490000e-001) (16, 3.40411961078643800000e-001) (17, 7.41629004478454590000e-001) (18, 7.12522625923156740000e-001) (19, 3.39821696281433110000e-001) (20, 1.58380791544914250000e-001) (21, -3.62080074846744540000e-002) (22, -1.00719153881073000000e-001) (23, 1.94437369704246520000e-001) (24, 1.85525808483362200000e-002) (25, 5.60294330120086670000e-001) (26, 1.00340270996093750000e+000) (27, -2.19988420605659480000e-001) (28, 2.12855055928230290000e-001) (29, -4.74739074707031250000e-003) (30, 1.37801885604858400000e-001) (31, 3.04118871688842770000e-001) (32, -1.44264832139015200000e-001) (33, 6.37902438640594480000e-001) (34, 3.78869138658046720000e-002) (35, 6.22225522994995120000e-001) (36, 4.18469727039337160000e-001) (37, 4.16665256023406980000e-001) (38, 4.83712321147322650000e-003) (39, -7.31323957443237300000e-002) (40, 7.60217458009719850000e-002) (41, 6.20809912681579590000e-001) (42, 3.52341473102569580000e-001) (43, -1.39020951464772220000e-002) (44, -7.58875533938407900000e-002) (45, 6.36844158172607420000e-001) (46, 1.74251481890678410000e-001) (47, 1.83927774429321290000e-001) (48, 3.23675781488418580000e-001) (49, 8.57911631464958190000e-002) (50, 4.09813910722732540000e-001) (51, 3.89007627964019780000e-001) (52, 1.38082587718963620000e+000) (53, 2.89381593465805050000e-002) (54, 5.45352101325988770000e-001) (55, -5.90722799301147460000e-001) (56, -4.23460006713867190000e-001) (57, -1.41692709922790530000e+000) (58, -1.27665650844573970000e+000) (59, -9.04300689697265630000e-001) (60, 1.75603047013282780000e-001) (61, -1.95764467120170590000e-001) (62, 8.53455800097435710000e-004) (63, 5.32595872879028320000e-001) (64, 9.10667181015014650000e-001) (65, -3.34264300763607030000e-002) (66, 8.22035014629364010000e-001) (67, 9.10333871841430660000e-001) (68, -6.79751625284552570000e-003) (69, -2.18294605612754820000e-001) (70, -2.36162796616554260000e-001) (71, 4.29921537637710570000e-001) (72, -1.07826840877532960000e+000) (73, -1.04156053066253660000e+000) (74, -8.52091789245605470000e-001) (75, 1.87953546643257140000e-001) (76, 6.22113108634948730000e-001) (77, 6.05778574943542480000e-001) (78, 7.71662056446075440000e-001) (79, 8.23578059673309330000e-001) (80, 2.77298212051391600000e-001) (81, 3.30946058034896850000e-001) (82, -2.26536846160888670000e+000) (83, -7.40847766399383540000e-001) (84, -2.50200062990188600000e-001) (85, -4.29160892963409420000e-001) (86, 4.55981612205505370000e-001) (87, -5.17305493354797360000e-001) (88, -9.08410966396331790000e-001) (89, -9.54397082328796390000e-001) (90, 6.54964566230773930000e-001) (91, 7.49953269958496090000e-001) (92, 2.18871831893920900000e-001) (93, -3.03564742207527160000e-002) (94, 3.16964626312255860000e-001) (95, -1.55559882521629330000e-001) (96, -1.02665483951568600000e-001) (97, -5.51790773868560790000e-001) (98, 1.02255813777446750000e-001) (99, -1.61474961787462230000e-002) (100, -3.57827693223953250000e-001) (101, 9.40135121345520020000e-002) (102, 4.27439540624618530000e-001) (103, 2.48347789049148560000e-001) (104, 5.40944993495941160000e-001) (105, 1.58449575304985050000e-001) (106, 8.83905142545700070000e-002) (107, 4.34200316667556760000e-001) (108, 1.86365693807601930000e-001) (109, 5.96775233745574950000e-001) (110, 4.94084298610687260000e-001) (111, -1.82350110262632370000e-002) (112, 1.20468713343143460000e-001) (113, 3.79129320383071900000e-001) (114, 4.15011607110500340000e-002) (115, 2.13146612048149110000e-001) (116, -2.35580220818519590000e-001) (117, 5.76270282268524170000e-001) (118, 2.46820151805877690000e-001) (119, -2.27314800024032590000e-001) (120, 7.05489277839660640000e-001) (121, -1.74774944782257080000e-001) (122, 5.74219882488250730000e-001) (123, -1.70052260160446170000e-001) (124, 2.09944397211074830000e-001) (125, 3.57467323541641240000e-001) (126, -3.29926222562789920000e-001) (127, -7.15274393558502200000e-001) (128, -6.66077673435211180000e-001) (129, -7.06333339214324950000e-001) (130, -5.04873335361480710000e-001) (131, -1.51247456669807430000e-001) (132, -1.14915169775485990000e-001) (133, 4.22435522079467770000e-001) (134, -8.07602226734161380000e-001) (135, 4.57481354475021360000e-001) (136, 9.30064171552658080000e-002) (137, 2.09253981709480290000e-001) (138, 8.81029963493347170000e-001) (139, -2.59026974439620970000e-001) (140, -2.07537993788719180000e-001) (141, -3.42192769050598140000e-001) (142, -9.05675768852233890000e-001) (143, -2.12236523628234860000e+000) (144, -3.09683918952941890000e+000) (145, -3.71783077716827390000e-001) (146, 4.45593804121017460000e-001) (147, -1.38278633356094360000e-001) (148, -2.66613215208053590000e-001) (149, -5.12234032154083250000e-001) (150, 1.08922779560089110000e-001) (151, -1.32016003131866460000e-001) (152, 7.99067139625549320000e-001) (153, 7.13045895099639890000e-001) (154, 1.06573116779327390000e+000) (155, 6.60072982311248780000e-001) (156, 3.74168485403060910000e-001) (157, 3.02127361297607420000e-001) (158, 5.65704047679901120000e-001) (159, 7.94943422079086300000e-002) (160, 2.28516876697540280000e-001) (161, -1.37943064328283070000e-003) (162, -6.00874125957489010000e-001) (163, -7.80919969081878660000e-001) (164, -7.26808309555053710000e-001) (165, 3.56275975704193120000e-001) (166, -1.29107087850570680000e-001) (167, 7.01198756694793700000e-001) (168, 3.43982875347137450000e-001) (169, 8.53383123874664310000e-001) (170, 1.34558010101318360000e+000) (171, 4.55862909555435180000e-001) (172, 7.00260043144226070000e-001) (173, 5.81049084663391110000e-001) (174, -1.51328951120376590000e-001) (175, 3.07742208242416380000e-001) (176, -6.29742220044136050000e-002) (177, -1.12911844253540040000e+000) (178, -2.36853337287902830000e+000) (179, -8.73891592025756840000e-001) (180, -3.81593763828277590000e-001) (181, 4.57769095897674560000e-001) (182, 6.82454526424407960000e-001) (183, 2.98631340265274050000e-001) (184, 1.57965898513793950000e-001) (185, -6.01101145148277280000e-002) (186, 8.16569685935974120000e-001) (187, -6.03678300976753230000e-002) (188, 7.55326569080352780000e-001) (189, 1.18153013288974760000e-001) (190, -7.36248865723609920000e-002) (191, 3.38717490434646610000e-001) (192, 3.89663994312286380000e-001) (193, -1.87105327844619750000e-001) (194, -2.36055359244346620000e-001) (195, -1.27858710289001460000e+000) (196, -2.88008570671081540000e-001) (197, -6.64350688457489010000e-002) (198, -2.68567711114883420000e-001) (199, -4.74277555942535400000e-001) (200, 1.74590602517127990000e-001) (201, 3.65711331367492680000e-001) (202, 4.56540405750274660000e-001) (203, 4.00381237268447880000e-001) (204, 4.49097126722335820000e-001) (205, 1.20014935731887820000e-001) (206, 4.31009262800216670000e-001) (207, -2.45941847562789920000e-001) (208, 1.12174078822135930000e-001) (209, 5.97166836261749270000e-001) (210, 1.45984813570976260000e-001) (211, 2.37874269485473630000e-001) (212, 4.45151954889297490000e-001) (213, 1.36154726147651670000e-001) (214, -4.81335490942001340000e-001) (215, -5.47423243522644040000e-001) (216, -5.70942938327789310000e-001) (217, 2.69421517848968510000e-001) (218, 2.37108841538429260000e-001) (219, 6.27178847789764400000e-001) (220, 1.10576570034027100000e-001) (221, 4.67235147953033450000e-001) (222, -3.81351411342620850000e-002) (223, -2.01606020331382750000e-001) (224, 5.47832250595092770000e-001) (225, 6.39116525650024410000e-001) (0, -1.42539888620376590000e-001) (1, -4.89645630121231080000e-001) (2, -2.80784144997596740000e-002) (3, -5.89108884334564210000e-001) (4, -5.20614013075828550000e-002) (5, -2.09372207522392270000e-001) (6, 4.89011853933334350000e-001) (7, 1.08017526566982270000e-001) (8, 6.47663772106170650000e-002) (9, -2.08589956164360050000e-001) (10, -8.24118912220001220000e-001) (11, -3.05421322584152220000e-001) (12, -1.00254368782043460000e+000) (13, 5.00408470630645750000e-001) (14, -2.74327516555786130000e-001) (15, -2.36041933298110960000e-001) (16, -8.16763997077941890000e-001) (17, -4.58774149417877200000e-001) (18, 3.05791348218917850000e-001) (19, 2.52640526741743090000e-002) (20, -5.45368313789367680000e-001) (21, -1.01143360137939450000e+000) (22, -1.02101051807403560000e+000) (23, -4.03582453727722170000e-001) (24, -4.48167830705642700000e-001) (25, -3.28763395547866820000e-001) (26, -1.25167220830917360000e-001) (27, -1.08122682571411130000e+000) (28, 6.80160820484161380000e-002) (29, 3.69773507118225100000e-001) (30, -3.75265866518020630000e-001) (31, -5.26288807392120360000e-001) (32, 4.51248772442340850000e-002) (33, 1.58346951007843020000e-001) (34, -5.65078966319561000000e-002) (35, -7.79969274997711180000e-001) (36, -8.99807035923004150000e-001) (37, -8.52681696414947510000e-001) (38, -5.29104650020599370000e-001) (39, -1.83504790067672730000e-001) (40, -2.88688749074935910000e-001) (41, -4.97929930686950680000e-001) (42, -3.20380963385105130000e-002) (43, 6.55347764492034910000e-001) (44, 5.37846446037292480000e-001) (45, -8.34412634372711180000e-001) (46, -7.69462645053863530000e-001) (47, -3.12384605407714840000e-001) (48, -1.86820447444915770000e-001) (49, -5.35271048545837400000e-001) (50, -1.02095627784729000000e+000) (51, -9.06013548374176030000e-001) (52, -8.13135147094726560000e-001) (53, -8.19427549839019780000e-001) (54, -1.16582119464874270000e+000) (55, 5.15031158924102780000e-001) (56, 2.41228155791759490000e-002) (57, -2.89734274148941040000e-001) (58, 5.51939487457275390000e-001) (59, -5.00137731432914730000e-002) (60, -3.81217628717422490000e-001) (61, -5.28503119945526120000e-001) (62, -2.51692563295364380000e-001) (63, 3.50007504224777220000e-001) (64, -6.94951057434082030000e-001) (65, -2.09991240501403810000e+000) (66, -1.04410111904144290000e+000) (67, -2.35361433029174800000e+000) (68, -5.75156331062316890000e-001) (69, -2.03817725181579590000e-001) (70, -2.07245200872421260000e-001) (71, 1.74617603421211240000e-001) (72, 4.92254287004470830000e-001) (73, 2.73990839719772340000e-001) (74, 4.39577549695968630000e-001) (75, -8.78543555736541750000e-001) (76, -1.25556123256683350000e+000) (77, -1.41536056995391850000e-001) (78, 2.24724814295768740000e-001) (79, -1.21991467475891110000e+000) (80, -1.13085269927978520000e+000) (81, -1.06059014797210690000e+000) (82, -1.27496397495269780000e+000) (83, -5.46267688274383540000e-001) (84, 5.28606288135051730000e-002) (85, -6.32058143615722660000e-001) (86, 3.20491641759872440000e-001) (87, 3.14107716083526610000e-001) (88, 8.81714224815368650000e-001) (89, 6.37239098548889160000e-001) (90, -4.55944508314132690000e-001) (91, -1.26067602634429930000e+000) (92, -7.60059118270874020000e-001) (93, 4.43269163370132450000e-001) (94, -8.66265416145324710000e-001) (95, -6.36569261550903320000e-001) (96, -5.04187881946563720000e-001) (97, -1.47562891244888310000e-001) (98, -1.48779243230819700000e-001) (99, 3.44184398651123050000e-001) (100, 7.03143402934074400000e-002) (101, 6.33158922195434570000e-001) (102, -6.50939568877220150000e-002) (103, 5.90053498744964600000e-001) (104, 5.73960661888122560000e-001) (105, -3.54052752256393430000e-001) (106, -1.30168831348419190000e+000) (107, -1.47077989578247070000e+000) (108, -3.36116105318069460000e-001) (109, -8.44567239284515380000e-001) (110, -4.91921693086624150000e-001) (111, 3.34631800651550290000e-001) (112, -1.29095926880836490000e-001) (113, -9.90504994988441470000e-002) (114, -4.82762046158313750000e-002) (115, 6.80555179715156560000e-002) (116, 2.07838833332061770000e-001) (117, 5.19699037075042720000e-001) (118, 5.71891009807586670000e-001) (119, 1.16757524013519290000e+000) (120, -9.77066874504089360000e-001) (121, -9.11243975162506100000e-001) (122, -8.49826514720916750000e-001) (123, -3.39702755212783810000e-001) (124, 3.02179783582687380000e-001) (125, -3.67387741804122920000e-001) (126, 9.23538878560066220000e-002) (127, 3.49315069615840910000e-002) (128, 6.19740366935729980000e-001) (129, 9.09821152687072750000e-001) (130, -1.84813216328620910000e-001) (131, 6.20339751243591310000e-001) (132, 2.86560237407684330000e-001) (133, 7.98421800136566160000e-001) (134, 5.21115124225616460000e-001) (135, -9.42915856838226320000e-001) (136, -9.80668902397155760000e-001) (137, -1.60039424896240230000e+000) (138, 4.72571223974227910000e-001) (139, -9.86102223396301270000e-001) (140, -1.12812399864196780000e+000) (141, -1.56025576591491700000e+000) (142, -4.99818295240402220000e-001) (143, -1.46256178617477420000e-001) (144, -6.78180232644081120000e-002) (145, 2.83887118101120000000e-001) (146, 2.36379131674766540000e-001) (147, -4.40679602324962620000e-002) (148, -2.74759143590927120000e-001) (149, 1.49311557412147520000e-001) (150, -3.63066166639328000000e-001) (151, -7.60917127132415770000e-001) (152, -2.09121078252792360000e-001) (153, -4.02808934450149540000e-002) (154, 1.09702914953231810000e-001) (155, -2.13975214958190920000e+000) (156, -1.21963989734649660000e+000) (157, -2.91314363479614260000e+000) (158, -3.59841048717498780000e-001) (159, 5.54508328437805180000e-001) (160, 4.85720187425613400000e-001) (161, -8.62151756882667540000e-002) (162, 4.32117044925689700000e-001) (163, 3.09421420097351070000e-001) (164, -6.86623156070709230000e-002) (165, -3.68773549795150760000e-001) (166, -3.76201421022415160000e-001) (167, -2.05908745527267460000e-001) (168, 6.23868942260742190000e-001) (169, -3.58982741832733150000e-001) (170, -4.39330160617828370000e-001) (171, -1.15257751941680910000e+000) (172, -9.10828053951263430000e-001) (173, -9.92282390594482420000e-001) (174, -5.21398365497589110000e-001) (175, -6.37752711772918700000e-001) (176, 6.52588605880737300000e-001) (177, 1.59262210130691530000e-001) (178, 1.05201101303100590000e+000) (179, -1.48223295807838440000e-001) (180, 4.55484896898269650000e-001) (181, -1.00988614559173580000e+000) (182, -1.07465334236621860000e-001) (183, 9.93234962224960330000e-002) (184, -3.14091414213180540000e-001) (185, -7.83017337322235110000e-001) (186, -1.14555227756500240000e+000) (187, -1.05548107624053960000e+000) (188, -7.83489108085632320000e-001) (189, -1.13466775417327880000e+000) (190, -7.41505920886993410000e-001) (191, -1.89450040459632870000e-001) (192, 6.91536307334899900000e-001) (193, 8.41599285602569580000e-001) (194, 1.75954923033714290000e-002) (195, 7.63138294219970700000e-001) (196, 1.43174976110458370000e-001) (197, 1.68193932622671130000e-002) (198, 4.83501821756362920000e-001) (199, 4.60716396570205690000e-001) (200, -5.05456365644931790000e-002) (201, -2.58258640766143800000e-001) (202, -9.15276348590850830000e-001) (203, -6.34992361068725590000e-001) (204, -5.28609633445739750000e-001) (205, -1.87391921877861020000e-001) (206, -4.56504002213478090000e-002) (207, 1.29470813274383540000e+000) (208, 8.51454734802246090000e-001) (209, 7.87256360054016110000e-001) (210, 2.04919382929801940000e-001) (211, -1.77187636494636540000e-001) (212, -2.98087392002344130000e-002) (213, 3.66047292947769170000e-001) (214, -5.02435505390167240000e-001) (215, -3.67110103368759160000e-001) (216, 8.96709784865379330000e-002) (217, -3.96395772695541380000e-001) (218, -6.86299562454223630000e-001) (219, -6.47158384323120120000e-001) (220, -3.51759135723114010000e-001) (221, -1.09814554452896120000e-001) (222, -5.85797309875488280000e-001) (223, -3.01799207925796510000e-001) (224, 2.92882710695266720000e-001) (225, -1.05361807346343990000e+000) (0, -4.35795336961746220000e-001) (1, -1.09483933448791500000e+000) (2, 9.32668894529342650000e-002) (3, -1.48327410221099850000e-001) (4, -8.34984332323074340000e-002) (5, -5.00457942485809330000e-001) (6, -6.43954515457153320000e-001) (7, -1.04509663581848140000e+000) (8, -5.91558516025543210000e-001) (9, -1.12557470798492430000e+000) (10, -5.79686880111694340000e-001) (11, 7.84881353378295900000e-001) (12, 5.28142869472503660000e-001) (13, 3.90703469514846800000e-001) (14, 7.50611901283264160000e-001) (15, 3.42725054360926150000e-003) (16, 1.04638829827308650000e-001) (17, -4.82295960187911990000e-001) (18, -5.20381629467010500000e-001) (19, -1.73862800002098080000e-001) (20, -6.24323070049285890000e-001) (21, -1.33500993251800540000e+000) (22, -1.51766777038574220000e-001) (23, 2.55503475666046140000e-001) (24, -1.21365785598754880000e-001) (25, -3.14176917076110840000e-001) (26, -1.20494139194488530000e+000) (27, 3.68646621704101560000e-001) (28, 6.41113162040710450000e-001) (29, 2.40578413009643550000e-001) (30, 3.89006167650222780000e-001) (31, -7.11720228195190430000e-001) (32, -1.41717001795768740000e-001) (33, 9.06873047351837160000e-002) (34, -4.47259902954101560000e-001) (35, 2.71891355514526370000e-001) (36, -6.20998024940490720000e-001) (37, 4.60423976182937620000e-001) (38, -4.10419374704360960000e-001) (39, -2.00787186622619630000e-001) (40, -6.97766005992889400000e-001) (41, -1.60007521510124210000e-001) (42, 7.15843215584754940000e-002) (43, 4.14073318243026730000e-001) (44, 9.03045594692230220000e-001) (45, 4.37223881483078000000e-001) (46, -6.88079655170440670000e-001) (47, 1.50048032402992250000e-001) (48, -7.39892013370990750000e-004) (49, -7.20992267131805420000e-001) (50, 8.04057046771049500000e-002) (51, 1.03224241733551030000e+000) (52, 1.20146000385284420000e+000) (53, 5.84640026092529300000e-001) (54, -4.94377538561820980000e-002) (55, -1.03084945678710940000e+000) (56, -2.94763231277465820000e+000) (57, -3.23578858375549320000e+000) (58, -3.67789578437805180000e+000) (59, -1.36424675583839420000e-001) (60, 4.27212506532669070000e-001) (61, 1.23217269778251650000e-001) (62, 3.54673266410827640000e-001) (63, -1.15223705768585210000e+000) (64, -1.17560431361198430000e-001) (65, -3.04113447666168210000e-001) (66, 3.74612957239151000000e-001) (67, 8.28840315341949460000e-001) (68, -2.42654815316200260000e-001) (69, -9.45283472537994380000e-001) (70, -9.34728503227233890000e-001) (71, -9.23375308513641360000e-001) (72, -1.05321598052978520000e+000) (73, -4.06715583801269530000e+000) (74, -4.43315923213958740000e-001) (75, 4.56256084144115450000e-002) (76, -6.41110241413116460000e-001) (77, -2.37277418375015260000e-001) (78, -1.25459599494934080000e+000) (79, -9.62107181549072270000e-001) (80, 2.87723720073699950000e-001) (81, -2.67777830362319950000e-001) (82, -1.48093700408935550000e-003) (83, -1.29080522060394290000e+000) (84, -9.12754118442535400000e-001) (85, -1.02676129341125490000e+000) (86, -5.87878704071044920000e-001) (87, -2.73888778686523440000e+000) (88, -3.24519777297973630000e+000) (89, -1.35278034210205080000e+000) (90, -1.53728991746902470000e-001) (91, -4.83859866857528690000e-001) (92, -6.89759135246276860000e-001) (93, -8.49255859851837160000e-001) (94, -1.29709613323211670000e+000) (95, -7.78957068920135500000e-001) (96, -3.27008867263793950000e+000) (97, -2.13781070709228520000e+000) (98, -2.69592237472534180000e+000) (99, -1.08498752117156980000e+000) (100, -1.12122070789337160000e+000) (101, -1.46159994602203370000e+000) (102, -1.80127406120300290000e+000) (103, -1.34035766124725340000e+000) (104, -4.87157344818115230000e-001) (105, 4.54159051179885860000e-001) (106, -4.50239092111587520000e-001) (107, -3.94303292036056520000e-001) (108, -1.13989531993865970000e+000) (109, -1.47562360763549800000e+000) (110, -1.75210940837860110000e+000) (111, -5.52331733703613280000e+000) (112, -8.48173332214355470000e+000) (113, -2.33410763740539550000e+000) (114, -1.80210363864898680000e+000) (115, -1.87692677974700930000e+000) (116, -1.01055276393890380000e+000) (117, -6.20620787143707280000e-001) (118, -6.49654030799865720000e-001) (119, -1.03065431118011470000e+000) (120, -1.43062621355056760000e-001) (121, -1.63154094479978080000e-004) (122, -1.22284300625324250000e-001) (123, -5.71647167205810550000e-001) (124, -1.55308401584625240000e+000) (125, -1.51463115215301510000e+000) (126, -7.42126107215881350000e-001) (127, -2.13727569580078120000e+000) (128, -1.87621009349823000000e+000) (129, -1.74150931835174560000e+000) (130, -1.15488052368164060000e+000) (131, -9.55833673477172850000e-001) (132, -1.06512355804443360000e+000) (133, -5.74414551258087160000e-001) (134, -1.06417977809906010000e+000) (135, -3.92287045717239380000e-001) (136, -8.91740173101425170000e-002) (137, -9.46248531341552730000e-001) (138, -1.14607357978820800000e+000) (139, -5.46436369419097900000e-001) (140, -1.64317011833190920000e-001) (141, -4.09773200750350950000e-001) (142, -3.51943880319595340000e-001) (143, -1.39879763126373290000e+000) (144, -1.33211755752563480000e+000) (145, -1.06464624404907230000e+000) (146, -1.54482614994049070000e+000) (147, -1.54888379573822020000e+000) (148, -1.49864900112152100000e+000) (149, -5.64346015453338620000e-001) (150, 3.30310940742492680000e-001) (151, -1.00339397788047790000e-001) (152, -1.64524519443511960000e+000) (153, -1.08142316341400150000e+000) (154, -3.91404330730438230000e-002) (155, 6.52233242988586430000e-001) (156, 3.47729891538620000000e-001) (157, -1.46133035421371460000e-001) (158, -4.29497689008712770000e-001) (159, -5.80582082271575930000e-001) (160, 1.74839094281196590000e-001) (161, -1.37562596797943120000e+000) (162, -2.37453722953796390000e+000) (163, -1.62106895446777340000e+000) (164, -9.64271664619445800000e-001) (165, 1.15206375718116760000e-001) (166, 3.35836619138717650000e-001) (167, -1.60457599163055420000e+000) (168, -1.41191339492797850000e+000) (169, -1.64579272270202640000e-001) (170, -7.70753547549247740000e-002) (171, -2.27542314678430560000e-002) (172, 2.70023673772811890000e-001) (173, 2.57147401571273800000e-001) (174, -8.00315618515014650000e-001) (175, -1.00648319721221920000e+000) (176, -2.14060568809509280000e+000) (177, -4.28070116043090820000e+000) (178, -1.64207541942596440000e+000) (179, -9.06417727470397950000e-001) (180, -4.15604263544082640000e-001) (181, -1.30585324764251710000e+000) (182, -1.48848092555999760000e+000) (183, -7.85264730453491210000e-001) (184, -1.88447192311286930000e-001) (185, 2.48000949621200560000e-001) (186, 2.76039153337478640000e-001) (187, 4.13430869579315190000e-001) (188, -2.11579561233520510000e-001) (189, 5.21435141563415530000e-001) (190, 7.72559463977813720000e-001) (191, -7.45818853378295900000e-001) (192, -2.47743189334869380000e-001) (193, -9.27176237106323240000e-001) (194, 1.31148815155029300000e-001) (195, -7.61194050312042240000e-001) (196, -2.26461791992187500000e+000) (197, -4.10055369138717650000e-001) (198, -5.49672663211822510000e-001) (199, 5.87439676746726040000e-003) (200, -2.80668109655380250000e-001) (201, 4.60143774747848510000e-001) (202, -2.61097788810729980000e-001) (203, -6.61628171801567080000e-002) (204, -2.52439752221107480000e-002) (205, 5.51989197731018070000e-001) (206, -2.59779635816812520000e-002) (207, 6.11499138176441190000e-003) (208, -1.21242022514343260000e+000) (209, 5.44048488140106200000e-001) (210, 4.52704697847366330000e-001) (211, -2.01789617538452150000e+000) (212, -1.04315066337585450000e+000) (213, -2.22503319382667540000e-001) (214, -7.55266919732093810000e-002) (215, 3.26394885778427120000e-001) (216, 2.02205657958984380000e-001) (217, 5.29525220394134520000e-001) (218, 3.94177049398422240000e-001) (219, 4.92575675249099730000e-001) (220, -8.81473720073699950000e-002) (221, 2.62649387121200560000e-001) (222, 1.82736665010452270000e-001) (223, -1.20978200435638430000e+000) (224, -6.23169422149658200000e-001) (225, -1.78454387187957760000e+000) (0, 9.82586443424224850000e-002) (1, 5.68518936634063720000e-001) (2, 1.86550244688987730000e-001) (3, -2.32207909226417540000e-001) (4, -3.18048298358917240000e-001) (5, -3.73703330755233760000e-001) (6, -2.67542228102684020000e-002) (7, -4.88962352275848390000e-001) (8, 6.65047988295555110000e-002) (9, -4.59906846284866330000e-001) (10, -1.16367089748382570000e+000) (11, 6.52036890387535100000e-002) (12, -4.16623860597610470000e-001) (13, -1.22877292335033420000e-001) (14, -4.07877177000045780000e-001) (15, -1.67588964104652400000e-001) (16, 7.07565128803253170000e-001) (17, 3.29949021339416500000e-001) (18, -8.19725394248962400000e-001) (19, -3.71571183204650880000e-001) (20, -5.76794624328613280000e-001) (21, -1.39602553844451900000e+000) (22, -1.93246757984161380000e+000) (23, -1.81862795352935790000e+000) (24, -1.31170940399169920000e+000) (25, 2.63155195862054820000e-002) (26, -4.59284037351608280000e-001) (27, -5.93036711215972900000e-001) (28, -5.99868476390838620000e-001) (29, -6.01626098155975340000e-001) (30, -4.65747594833374020000e-001) (31, 3.16341221332550050000e-001) (32, 1.54652699828147890000e-001) (33, -3.67141425609588620000e-001) (34, -6.09511673450469970000e-001) (35, -4.81027692556381230000e-001) (36, -1.24568569660186770000e+000) (37, -3.66179913282394410000e-001) (38, -6.18793785572052000000e-001) (39, -6.95166528224945070000e-001) (40, -5.00103473663330080000e-001) (41, 5.16606807708740230000e-001) (42, -1.94876626133918760000e-001) (43, -3.28755080699920650000e-001) (44, -1.27691388130187990000e-001) (45, 1.63400065898895260000e+000) (46, 2.63071894645690920000e-001) (47, 5.60566306114196780000e-001) (48, -1.05890341103076930000e-001) (49, 6.80696442723274230000e-002) (50, -1.16216897964477540000e+000) (51, -7.36763030290603640000e-002) (52, -5.13201773166656490000e-001) (53, -1.00926077365875240000e+000) (54, -7.19101011753082280000e-001) (55, 4.87711519002914430000e-001) (56, 1.49611100554466250000e-001) (57, -2.13787108659744260000e-001) (58, -1.25334516167640690000e-001) (59, 8.08996140956878660000e-001) (60, 2.21126198768615720000e+000) (61, 6.07420027256011960000e-001) (62, 5.21144509315490720000e-001) (63, -6.40751063823699950000e-001) (64, 3.50991874933242800000e-001) (65, -8.49080622196197510000e-001) (66, -6.08384728431701660000e-001) (67, -1.92880427837371830000e+000) (68, -1.48279711604118350000e-001) (69, -5.47480285167694090000e-001) (70, 3.07795256376266480000e-001) (71, -3.22759240865707400000e-001) (72, 1.38219189643859860000e+000) (73, 3.12765210866928100000e-001) (74, 8.12520325183868410000e-001) (75, 2.34540247917175290000e+000) (76, 2.50440686941146850000e-001) (77, 5.28192996978759770000e-001) (78, -6.26956224441528320000e-001) (79, 1.61336883902549740000e-001) (80, -5.61058282852172850000e-001) (81, -8.15017044544219970000e-001) (82, -7.23119914531707760000e-001) (83, -1.09951865673065190000e+000) (84, -9.43164288997650150000e-001) (85, 7.75958895683288570000e-002) (86, 8.31854224205017090000e-001) (87, 1.91369190812110900000e-001) (88, 2.29424431920051570000e-001) (89, 5.08662045001983640000e-001) (90, 1.43121540546417240000e+000) (91, 6.66989386081695560000e-001) (92, 2.59655922651290890000e-001) (93, -9.35071468353271480000e-001) (94, -6.30648553371429440000e-001) (95, -1.79017090797424320000e+000) (96, -7.53723442554473880000e-001) (97, -6.89635038375854490000e-001) (98, -6.76629662513732910000e-001) (99, 7.87745714187622070000e-002) (100, 4.12825375795364380000e-001) (101, -3.93982045352458950000e-002) (102, 3.69306325912475590000e-001) (103, 3.08632999658584590000e-001) (104, -1.86792045831680300000e-001) (105, 1.37370443344116210000e+000) (106, 5.51655530929565430000e-001) (107, -5.93248903751373290000e-001) (108, -1.31137692928314210000e+000) (109, -5.27937889099121090000e-001) (110, 3.47870476543903350000e-002) (111, 8.47643837332725520000e-002) (112, -4.21717762947082520000e-001) (113, -3.57035905122756960000e-001) (114, -2.97018378973007200000e-001) (115, -1.02147072553634640000e-001) (116, 3.26513975858688350000e-001) (117, -1.57402843236923220000e-001) (118, -7.99326673150062560000e-002) (119, -1.80512055754661560000e-001) (120, 1.46439957618713380000e+000) (121, 3.52269947528839110000e-001) (122, 2.68571227788925170000e-001) (123, -4.57195878028869630000e-001) (124, 1.88434019684791560000e-001) (125, -2.17493250966072080000e-001) (126, -5.83612859249114990000e-001) (127, 2.80041933059692380000e-001) (128, 4.44183498620986940000e-001) (129, -1.33514270186424260000e-001) (130, -2.52486497163772580000e-001) (131, 7.16896057128906250000e-002) (132, 4.55314546823501590000e-001) (133, 2.34811305999755860000e-001) (134, -6.46454870700836180000e-001) (135, 1.70298874378204350000e+000) (136, -5.06183840334415440000e-002) (137, -1.99487116187810900000e-002) (138, -4.60222363471984860000e-001) (139, -1.93134129047393800000e-001) (140, -7.58242845535278320000e-001) (141, -3.88273954391479490000e-001) (142, -2.64066189527511600000e-001) (143, 2.56204336881637570000e-001) (144, 2.83868223428726200000e-001) (145, -9.39216732978820800000e-001) (146, -5.06465077400207520000e-001) (147, 1.23547852039337160000e-001) (148, 1.93566799163818360000e-001) (149, -7.62623315677046780000e-003) (150, 1.75909626483917240000e+000) (151, 4.33982849121093750000e-001) (152, -2.78179258108139040000e-001) (153, -7.21518322825431820000e-002) (154, -5.93395888805389400000e-001) (155, -7.41736769676208500000e-001) (156, 4.37504142522811890000e-001) (157, 2.50719517469406130000e-001) (158, 5.10472059249877930000e-001) (159, 4.29368644952774050000e-001) (160, -1.07275235652923580000e+000) (161, -5.98891735076904300000e-001) (162, 3.72616320848464970000e-001) (163, -5.99719816818833350000e-003) (164, -5.99826633930206300000e-001) (165, 2.25108909606933590000e+000) (166, 1.87804549932479860000e-001) (167, -5.71191608905792240000e-001) (168, -2.98889577388763430000e-001) (169, -6.61448359489440920000e-001) (170, -4.39205694198608400000e+000) (171, -1.83811902999877930000e+000) (172, -1.39773368835449220000e+000) (173, -1.44029402732849120000e+000) (174, -1.15600097179412840000e+000) (175, -1.81749188899993900000e+000) (176, 2.77632474899291990000e-001) (177, -1.08663268387317660000e-001) (178, -5.61531305313110350000e-001) (179, -4.54271584749221800000e-001) (180, 2.44138278067111970000e-002) (181, -4.00564789772033690000e-001) (182, 7.06041231751441960000e-002) (183, -5.20828366279602050000e-001) (184, -8.16451191902160640000e-001) (185, -1.36210751533508300000e+000) (186, -1.16409420967102050000e+000) (187, -7.43959844112396240000e-001) (188, -1.04767024517059330000e+000) (189, -7.64980614185333250000e-001) (190, -2.29115939140319820000e+000) (191, -1.68803250789642330000e+000) (192, -4.28728580474853520000e-001) (193, -8.73728394508361820000e-001) (194, -7.36612677574157710000e-001) (195, 3.64076137542724610000e-001) (196, -2.06106960773468020000e-001) (197, -2.75642108172178270000e-002) (198, 7.61329680681228640000e-002) (199, 5.49291633069515230000e-002) (200, -1.95561498403549190000e-001) (201, 1.98375850915908810000e-001) (202, 3.98177325725555420000e-001) (203, -6.14665038883686070000e-002) (204, -2.02156230807304380000e-001) (205, -1.03257954120635990000e-001) (206, -6.33569538593292240000e-001) (207, -3.09817254543304440000e-001) (208, -8.88012647628784180000e-001) (209, -4.66305494308471680000e-001) (210, 1.73524349927902220000e-001) (211, -2.39241018891334530000e-001) (212, -1.54116973280906680000e-001) (213, -1.75683096051216130000e-001) (214, -2.15710833668708800000e-001) (215, -2.37386599183082580000e-001) (216, 4.77414429187774660000e-001) (217, 3.27274739742279050000e-001) (218, -3.76653701066970830000e-001) (219, -3.83764594793319700000e-001) (220, -2.28332072496414180000e-001) (221, -1.64935961365699770000e-001) (222, -3.66546630859375000000e-001) (223, -5.05420327186584470000e-001) (224, 5.63232958316802980000e-001) (225, -1.09402191638946530000e+000) (0, -9.18408632278442380000e-001) (1, 3.31970512866973880000e-001) (2, -8.89606833457946780000e-001) (3, -8.01360189914703370000e-001) (4, -2.01190292835235600000e-001) (5, -1.01402831077575680000e+000) (6, -4.83829796314239500000e-001) (7, -8.68379890918731690000e-001) (8, -5.26274859905242920000e-001) (9, 5.77789425849914550000e-001) (10, 6.56290650367736820000e-001) (11, 3.30650448799133300000e-001) (12, 1.36047613620758060000e+000) (13, -4.54941898584365840000e-001) (14, 9.05194818973541260000e-001) (15, -7.01744556427001950000e-001) (16, -1.33047506213188170000e-001) (17, -4.80032682418823240000e-001) (18, -5.19869029521942140000e-001) (19, 3.60616713762283330000e-001) (20, -1.16267645359039310000e+000) (21, -1.32800579071044920000e+000) (22, 5.82812368869781490000e-001) (23, 7.34818100929260250000e-001) (24, 8.50082337856292720000e-001) (25, 4.30472195148468020000e-001) (26, 3.45490813255310060000e-001) (27, 1.38299393653869630000e+000) (28, -1.91090315580368040000e-001) (29, 1.48914098739624020000e-001) (30, -9.72249805927276610000e-002) (31, -4.06814098358154300000e-001) (32, -1.06158339977264400000e+000) (33, 1.06341607868671420000e-001) (34, 3.62120151519775390000e-001) (35, -7.21788763999938960000e-001) (36, 6.74956321716308590000e-001) (37, 7.93331801891326900000e-001) (38, 9.15046095848083500000e-001) (39, 2.21555277705192570000e-001) (40, 2.70755086094141010000e-002) (41, -1.21023583412170410000e+000) (42, -1.50588393211364750000e+000) (43, -6.50275766849517820000e-001) (44, 3.16020041704177860000e-001) (45, -5.70780277252197270000e-001) (46, -4.82757210731506350000e-001) (47, -9.92906630039215090000e-001) (48, -6.02559447288513180000e-001) (49, 1.27765819430351260000e-001) (50, 6.47336542606353760000e-001) (51, 2.51010268926620480000e-001) (52, 3.55242282152175900000e-001) (53, 9.40531075000762940000e-001) (54, 8.76280784606933590000e-001) (55, 4.09119427204132080000e-001) (56, -1.29645907878875730000e+000) (57, -1.35698342323303220000e+000) (58, -5.69521486759185790000e-001) (59, -2.89826941490173340000e+000) (60, -9.50246334075927730000e-001) (61, -5.35745739936828610000e-001) (62, -1.05157196521759030000e+000) (63, -8.81666004657745360000e-001) (64, -4.29855585098266600000e-001) (65, 5.48772394657135010000e-001) (66, 1.10988676548004150000e+000) (67, 1.08608573675155640000e-001) (68, -2.86515712738037110000e-001) (69, 3.97188633680343630000e-001) (70, 1.99076518416404720000e-001) (71, -7.89452612400054930000e-001) (72, -6.23182117938995360000e-001) (73, -9.44932997226715090000e-001) (74, -2.91932153701782230000e+000) (75, -4.80802685022354130000e-001) (76, 3.22489261627197270000e-001) (77, -9.54451799392700200000e-001) (78, 5.23787066340446470000e-002) (79, 3.61364513635635380000e-001) (80, 1.20274257659912110000e+000) (81, 7.63236761093139650000e-001) (82, -1.75071251392364500000e+000) (83, -6.47122144699096680000e-001) (84, 1.55886098742485050000e-001) (85, -1.03102779388427730000e+000) (86, 3.42205077409744260000e-001) (87, -6.11988782882690430000e-001) (88, -1.05625689029693600000e+000) (89, -1.63977789878845210000e+000) (90, -1.15646243095397950000e+000) (91, 4.12155091762542720000e-001) (92, -6.00866556167602540000e-001) (93, -1.70088279247283940000e+000) (94, 1.43596678972244260000e-001) (95, 1.97987541556358340000e-001) (96, -3.57035875320434570000e-001) (97, -3.40216279029846190000e+000) (98, -3.53602242469787600000e+000) (99, -6.60547554492950440000e-001) (100, 1.19579385500401260000e-003) (101, -6.56111001968383790000e-001) (102, 7.04829767346382140000e-002) (103, -4.92963254451751710000e-001) (104, -9.42732691764831540000e-001) (105, -3.93787831068038940000e-001) (106, -3.32960665225982670000e-001) (107, -3.43679368495941160000e-001) (108, 9.04917001724243160000e-001) (109, 4.44373726844787600000e-001) (110, 6.29430294036865230000e-001) (111, -4.85299539566040040000e+000) (112, -4.12409257888793950000e+000) (113, -2.02723598480224610000e+000) (114, -2.23527693748474120000e+000) (115, -2.75248599052429200000e+000) (116, -6.32127106189727780000e-001) (117, -1.02914762496948240000e+000) (118, 3.62960100173950200000e-001) (119, -1.04661166667938230000e+000) (120, -6.90667390823364260000e-001) (121, -2.76728451251983640000e-001) (122, -2.03590527176856990000e-001) (123, 3.10876458883285520000e-001) (124, 7.87520885467529300000e-001) (125, 2.27503880858421330000e-001) (126, -4.30504226684570310000e+000) (127, -1.73762953281402590000e+000) (128, -1.73344218730926510000e+000) (129, -1.83591473102569580000e+000) (130, -1.00653481483459470000e+000) (131, -8.46742272377014160000e-001) (132, -2.91858530044555660000e+000) (133, -1.29209053516387940000e+000) (134, -1.78181076049804690000e+000) (135, -4.73473459482192990000e-001) (136, -1.05848558247089390000e-001) (137, -1.63284873962402340000e+000) (138, -5.48565983772277830000e-001) (139, 1.07200706005096440000e+000) (140, 4.93118651211261750000e-002) (141, 7.04512059688568120000e-001) (142, -2.87140178680419920000e+000) (143, -2.34508419036865230000e+000) (144, -1.75459885597229000000e+000) (145, -3.02722752094268800000e-001) (146, -1.10630023479461670000e+000) (147, -1.42900347709655760000e+000) (148, -3.10045957565307620000e+000) (149, -2.28573417663574220000e+000) (150, -6.83088660240173340000e-001) (151, -4.23874020576477050000e-001) (152, -9.14264202117919920000e-001) (153, -3.23536574840545650000e-001) (154, 1.02504336833953860000e+000) (155, 3.79337090998888020000e-003) (156, 4.65807318687438960000e-002) (157, 7.41980910301208500000e-001) (158, -5.47333955764770510000e-001) (159, 2.08613634109497070000e-001) (160, 6.51625871658325200000e-001) (161, -1.27858734130859370000e+000) (162, -1.30176544189453130000e+000) (163, -2.01599645614624020000e+000) (164, -2.27463102340698240000e+000) (165, -7.55445122718811040000e-001) (166, -5.15311002731323240000e-001) (167, -1.37129580974578860000e+000) (168, 9.53167200088500980000e-001) (169, 2.76287823915481570000e-001) (170, 5.83733797073364260000e-001) (171, 1.37311473488807680000e-001) (172, 7.07186698913574220000e-001) (173, 1.98292195796966550000e-001) (174, -2.40131318569183350000e-001) (175, 1.02534782886505130000e+000) (176, -1.67632296681404110000e-001) (177, -1.10438740253448490000e+000) (178, -2.49541664123535160000e+000) (179, -1.77655613422393800000e+000) (180, -7.80525505542755130000e-001) (181, -2.23121833801269530000e+000) (182, -1.69095361232757570000e+000) (183, 9.45193886756896970000e-001) (184, 7.79613852500915530000e-002) (185, 9.48323667049407960000e-001) (186, 7.69272565841674800000e-001) (187, 5.38969397544860840000e-001) (188, 7.39353179931640630000e-001) (189, 6.19497179985046390000e-001) (190, 2.95430600643157960000e-001) (191, 2.10965082049369810000e-001) (192, -8.50703716278076170000e-001) (193, -5.48236131668090820000e-001) (194, -1.37174531817436220000e-001) (195, -2.07536745071411130000e+000) (196, -1.98584651947021480000e+000) (197, -1.35699915885925290000e+000) (198, -1.15533459186553960000e+000) (199, 6.51864647865295410000e-001) (200, 4.14246916770935060000e-001) (201, 2.58555740118026730000e-001) (202, 3.00541251897811890000e-001) (203, 2.59704828262329100000e-001) (204, 1.11316812038421630000e+000) (205, 1.07089281082153320000e+000) (206, 2.87363082170486450000e-001) (207, -7.17792034149169920000e-001) (208, -8.81404280662536620000e-001) (209, -5.37474274635314940000e-001) (210, -5.08783161640167240000e-001) (211, -2.64857321977615360000e-001) (212, -1.28045284748077390000e+000) (213, 5.20843593403697010000e-003) (214, 2.91197925806045530000e-001) (215, -2.80168622732162480000e-001) (216, 6.57505333423614500000e-001) (217, 4.55406188964843750000e-001) (218, 4.83089953660964970000e-001) (219, 7.43978738784790040000e-001) (220, 8.01149129867553710000e-001) (221, 1.63920655846595760000e-001) (222, 6.83298826217651370000e-001) (223, -7.28891193866729740000e-001) (224, -2.06023201346397400000e-001) (225, 1.65028512477874760000e-001) (0, 1.86142683029174800000e-001) (1, 4.27489310503005980000e-001) (2, -7.01776100322604180000e-003) (3, -6.67046189308166500000e-001) (4, -7.25112617015838620000e-001) (5, -3.09002846479415890000e-001) (6, 4.27992939949035640000e-002) (7, -4.84872698783874510000e-001) (8, -1.86837583780288700000e-001) (9, -1.10283978283405300000e-001) (10, -8.69173705577850340000e-001) (11, 5.31813241541385650000e-002) (12, -1.37097507715225220000e-001) (13, -2.36806049942970280000e-001) (14, 2.38917157053947450000e-001) (15, 4.32466596364974980000e-001) (16, 2.51744270324707030000e-001) (17, 8.75302106142044070000e-002) (18, 1.29723012447357180000e-001) (19, 4.20331001281738280000e-001) (20, -4.77595776319503780000e-002) (21, 6.26995980739593510000e-001) (22, 4.99217838048934940000e-001) (23, 5.44103980064392090000e-001) (24, 2.24375918507575990000e-001) (25, 1.72818675637245180000e-001) (26, 2.08466693758964540000e-001) (27, -4.08703804016113280000e-001) (28, 4.10222977399826050000e-001) (29, 2.84438490867614750000e-001) (30, 7.91691541671752930000e-001) (31, 1.08256506919860840000e+000) (32, 8.47583889961242680000e-001) (33, -2.32116281986236570000e-001) (34, 2.63735771179199220000e-001) (35, 3.30415993928909300000e-001) (36, 7.06389129161834720000e-001) (37, 3.56832355260849000000e-001) (38, 2.37506583333015440000e-001) (39, 8.71485769748687740000e-002) (40, 3.13646346330642700000e-001) (41, 3.16267013549804690000e-001) (42, 3.45825612545013430000e-001) (43, -2.04401567578315730000e-001) (44, 1.12934961915016170000e-001) (45, 1.07782542705535890000e+000) (46, 4.73242551088333130000e-001) (47, 6.43052041530609130000e-001) (48, -4.83012944459915160000e-002) (49, -3.43062788248062130000e-001) (50, 5.28822362422943120000e-001) (51, 1.01090610027313230000e+000) (52, 1.15689229965209960000e+000) (53, 6.56033277511596680000e-001) (54, 7.19139993190765380000e-001) (55, -2.59696412086486820000e+000) (56, -7.21348643302917480000e-001) (57, -1.32380437850952150000e+000) (58, -8.16084861755371090000e-001) (59, 1.11266064643859860000e+000) (60, 1.14753091335296630000e+000) (61, 4.88524764776229860000e-001) (62, 7.34807550907135010000e-001) (63, -6.30812466144561770000e-001) (64, 4.41593974828720090000e-001) (65, 3.88927459716796880000e-001) (66, 2.93024271726608280000e-001) (67, 6.19948387145996090000e-001) (68, -2.51250118017196660000e-001) (69, -2.50898212194442750000e-001) (70, -1.83368599414825440000e+000) (71, -1.14209520816802980000e+000) (72, -1.07976329326629640000e+000) (73, -9.93794858455657960000e-001) (74, 1.07445502281188960000e+000) (75, 6.31242871284484860000e-001) (76, 2.34123170375823970000e-001) (77, 1.13385951519012450000e+000) (78, -1.08129613101482390000e-001) (79, 3.63498657941818240000e-001) (80, 4.00969743728637700000e-001) (81, -8.31306725740432740000e-003) (82, 6.74898564815521240000e-001) (83, -8.21207582950592040000e-001) (84, -4.71398204565048220000e-001) (85, -8.02613049745559690000e-002) (86, -1.39233624935150150000e+000) (87, -1.57060217857360840000e+000) (88, -7.40734338760375980000e-001) (89, -2.62798905372619630000e-001) (90, 6.45994782447814940000e-001) (91, 6.25659048557281490000e-001) (92, 8.66108834743499760000e-001) (93, -5.86423218250274660000e-001) (94, -1.24362915754318240000e-001) (95, -2.01207816600799560000e-001) (96, 7.74304091930389400000e-001) (97, 3.50303798913955690000e-001) (98, 9.80853214859962460000e-002) (99, 8.73125195503234860000e-002) (100, 1.42783047631382940000e-002) (101, -1.08908578753471370000e-001) (102, -4.98972892761230470000e-001) (103, -7.51804351806640630000e-001) (104, -2.20083490014076230000e-001) (105, 1.06846904754638670000e+000) (106, 4.75706428289413450000e-001) (107, 3.34537804126739500000e-001) (108, -6.33608102798461910000e-001) (109, 1.21967530250549320000e+000) (110, -5.70503361523151400000e-002) (111, 7.70542323589324950000e-001) (112, 2.64761233329772950000e+000) (113, 2.55415129661560060000e+000) (114, 1.00808441638946530000e+000) (115, 9.60485935211181640000e-001) (116, -5.68231701850891110000e-001) (117, -4.74801659584045410000e-001) (118, -5.78097403049468990000e-001) (119, -9.06234830617904660000e-002) (120, 2.50123769044876100000e-001) (121, 5.56702077388763430000e-001) (122, 1.28103494644165040000e-001) (123, 1.81805610656738280000e-001) (124, 4.97831970453262330000e-001) (125, 3.78538459539413450000e-001) (126, -5.13593852519989010000e-001) (127, 8.14056634902954100000e-001) (128, 4.87500846385955810000e-001) (129, 1.30601727962493900000e+000) (130, 3.02283823490142820000e-001) (131, -2.72567987442016600000e-001) (132, -5.48108555376529690000e-002) (133, -1.94514364004135130000e-001) (134, 2.52977073192596440000e-001) (135, 6.21917605400085450000e-001) (136, 9.48924064636230470000e-001) (137, -1.89448088407516480000e-001) (138, -1.34523093700408940000e-001) (139, 6.70815944671630860000e-001) (140, -2.69014924764633180000e-001) (141, 1.57513663172721860000e-001) (142, 4.37359273433685300000e-001) (143, 1.35476837158203120000e+001) (144, 1.31190032958984380000e+001) (145, -2.89742499589920040000e-001) (146, 5.20555377006530760000e-001) (147, -3.23505353927612300000e+000) (148, -1.30288684368133540000e+000) (149, -1.62936113774776460000e-002) (150, 9.30836021900177000000e-001) (151, 1.68253824114799500000e-001) (152, 5.35824969410896300000e-002) (153, -3.64505738019943240000e-001) (154, -4.76767212152481080000e-001) (155, -2.67625451087951660000e-001) (156, -1.18019771575927730000e+000) (157, -1.16985940933227540000e+001) (158, -2.05527896881103520000e+001) (159, -1.04383122920989990000e+000) (160, 2.31393933296203610000e-001) (161, -2.71625924110412600000e+000) (162, -2.65613961219787600000e+000) (163, -1.51709914207458500000e+000) (164, -6.27331495285034180000e-001) (165, 8.62315654754638670000e-001) (166, 7.68195450305938720000e-001) (167, 1.78584605455398560000e-001) (168, -1.42539709806442260000e-001) (169, -3.11616063117980960000e-001) (170, -4.19130206108093260000e-001) (171, 4.45118278264999390000e-001) (172, 1.21161222457885740000e+000) (173, 1.62852704524993900000e+000) (174, 9.34242904186248780000e-001) (175, 5.29679775238037110000e-001) (176, -1.84499382972717290000e+000) (177, -2.94615674018859860000e+000) (178, -1.11290705204010010000e+000) (179, -6.46418750286102290000e-001) (180, 1.96039885282516480000e-001) (181, 2.97316946089267730000e-002) (182, 4.37952995300292970000e-001) (183, -8.13834488391876220000e-001) (184, 4.33873653411865230000e-001) (185, 2.22995012998580930000e-001) (186, 3.70296567678451540000e-001) (187, 1.25611698627471920000e+000) (188, 6.34412765502929690000e-001) (189, 9.64882194995880130000e-001) (190, 8.20526957511901860000e-001) (191, 3.79264831542968750000e-001) (192, -2.62490600347518920000e-001) (193, -8.44653174281120300000e-002) (194, 2.75804698467254640000e-001) (195, -1.42500670626759530000e-002) (196, -7.49597430229187010000e-001) (197, -1.96343138813972470000e-001) (198, -3.22094373404979710000e-002) (199, 3.30479711294174190000e-001) (200, 3.40143918991088870000e-001) (201, 7.61620342731475830000e-001) (202, 6.53927683830261230000e-001) (203, 6.78196251392364500000e-001) (204, -9.98228788375854490000e-002) (205, 1.97527304291725160000e-001) (206, -1.25940263271331790000e-001) (207, -6.02483868598937990000e-001) (208, -5.38993299007415770000e-001) (209, 1.27473935484886170000e-001) (210, 6.32611513137817380000e-001) (211, 1.40451848506927490000e-001) (212, -1.56453549861907960000e-001) (213, 2.17513963580131530000e-001) (214, 2.90028661489486690000e-001) (215, 2.36135721206665040000e-001) (216, 5.85333347320556640000e-001) (217, 2.28322893381118770000e-001) (218, 2.29054048657417300000e-001) (219, 2.25529804825782780000e-001) (220, 6.41249239444732670000e-001) (221, 1.26439088489860300000e-003) (222, -2.55083739757537840000e-001) (223, -3.76239061355590820000e-001) (224, 3.88677477836608890000e-001) (225, -3.62657994031906130000e-001) (0, -6.59581124782562260000e-001) (1, -1.64800792932510380000e-001) (2, -4.29840534925460820000e-001) (3, -3.34240168333053590000e-001) (4, -1.05733478069305420000e+000) (5, -6.49573385715484620000e-001) (6, -6.39618992805480960000e-001) (7, 1.74525789916515350000e-002) (8, -3.88038486242294310000e-001) (9, -6.72803938388824460000e-001) (10, -4.08888071775436400000e-001) (11, -1.43505081534385680000e-001) (12, -7.12970912456512450000e-001) (13, -6.29334211349487300000e-001) (14, 2.21496194601058960000e-001) (15, 2.71197378635406490000e-001) (16, 1.11467391252517700000e-001) (17, -5.65052390098571780000e-001) (18, -3.37200582027435300000e-001) (19, -9.84153509140014650000e-001) (20, -9.46074128150939940000e-001) (21, 3.51200580596923830000e-001) (22, -7.91875898838043210000e-001) (23, -6.02789878845214840000e-001) (24, -6.88967347145080570000e-001) (25, -5.34206330776214600000e-001) (26, 2.86794513463974000000e-001) (27, -7.11068451404571530000e-001) (28, 5.18769286572933200000e-002) (29, -6.82416975498199460000e-001) (30, -6.02319777011871340000e-001) (31, 2.39678621292114260000e-002) (32, -9.56438362598419190000e-001) (33, -3.11943382024765010000e-001) (34, -1.02819755673408510000e-001) (35, 4.09328117966651920000e-002) (36, -9.79990065097808840000e-002) (37, 3.13397824764251710000e-001) (38, -3.72294604778289790000e-001) (39, 2.63988263905048370000e-002) (40, -5.00133037567138670000e-001) (41, -3.60551238059997560000e-001) (42, 4.09441292285919190000e-001) (43, -1.83562308549880980000e-001) (44, 1.37456595897674560000e-001) (45, 1.96441292762756350000e-001) (46, 1.07752680778503420000e-002) (47, -1.22446894645690920000e+000) (48, -9.82774853706359860000e-001) (49, -2.44032606482505800000e-001) (50, -7.99776375293731690000e-001) (51, -2.47170060873031620000e-001) (52, -1.14794468879699710000e+000) (53, -7.47825056314468380000e-002) (54, -1.40992307662963870000e+000) (55, -7.26038575172424320000e-001) (56, -1.43248462677001950000e+000) (57, -3.90164703130722050000e-001) (58, 3.11627555638551710000e-002) (59, 3.02930951118469240000e-001) (60, -5.28027594089508060000e-001) (61, -6.71496331691741940000e-001) (62, -1.00537252426147460000e+000) (63, -1.11190593242645260000e+000) (64, -9.76337432861328130000e-001) (65, -2.44092702865600590000e+000) (66, -3.92680078744888310000e-001) (67, -1.16035115718841550000e+000) (68, 7.58840069174766540000e-002) (69, -5.78269243240356450000e-001) (70, -4.15794610977172850000e-001) (71, -5.45853257179260250000e-001) (72, 7.17799186706542970000e-001) (73, -5.95634691417217250000e-002) (74, -6.69390439987182620000e-001) (75, 2.84329354763031010000e-001) (76, -2.31431782245635990000e-001) (77, -1.15781998634338380000e+000) (78, -3.52003931999206540000e-001) (79, -8.25983703136444090000e-001) (80, -1.21426677703857420000e+000) (81, -7.60531663894653320000e-001) (82, -5.13955354690551760000e-001) (83, -3.21141332387924190000e-001) (84, -1.18051207065582280000e+000) (85, 6.40042304992675780000e-001) (86, -6.82415366172790530000e-001) (87, 3.67314457893371580000e-001) (88, 8.75873118638992310000e-002) (89, 3.60964775085449220000e-001) (90, -3.08026850223541260000e-001) (91, -5.11002182960510250000e-001) (92, -4.06736493110656740000e-001) (93, 3.07185441255569460000e-001) (94, 1.85884281992912290000e-001) (95, -1.18840646743774410000e+000) (96, -8.09113860130310060000e-001) (97, -1.69822323322296140000e+000) (98, -2.38854122161865230000e+000) (99, -6.46326243877410890000e-001) (100, -6.62539958953857420000e-001) (101, -1.49026975035667420000e-001) (102, 1.44437521696090700000e-001) (103, -3.38557004928588870000e-001) (104, 1.24595761299133300000e-002) (105, -3.26989233493804930000e-001) (106, -1.44978314638137820000e-001) (107, -5.37364244461059570000e-001) (108, -2.09241122007370000000e-001) (109, -9.76736843585968020000e-002) (110, -9.58642959594726560000e-001) (111, -3.05177164077758790000e+000) (112, -2.60536456108093260000e+000) (113, -1.94982147216796870000e+000) (114, -1.45969176292419430000e+000) (115, -9.68353033065795900000e-001) (116, -1.28252243995666500000e+000) (117, 4.89009320735931400000e-001) (118, -5.32724976539611820000e-001) (119, -6.18892848491668700000e-001) (120, 4.65511269867420200000e-002) (121, -7.35525548458099370000e-001) (122, -6.02172128856182100000e-002) (123, -1.77928239107131960000e-001) (124, 1.58290877938270570000e-001) (125, -7.90132105350494380000e-001) (126, 4.48205262422561650000e-001) (127, 7.19166696071624760000e-002) (128, -2.03879922628402710000e-001) (129, -2.22915083169937130000e-001) (130, -6.04895174503326420000e-001) (131, -1.34561762213706970000e-001) (132, 3.02052319049835210000e-001) (133, -2.28936290740966800000e+000) (134, -7.67505764961242680000e-001) (135, -6.41365349292755130000e-001) (136, -2.36484274268150330000e-001) (137, -6.77489459514617920000e-001) (138, -8.25812995433807370000e-001) (139, -5.55917620658874510000e-001) (140, -1.04472741484642030000e-001) (141, 1.82102501392364500000e-001) (142, -8.93862903118133540000e-001) (143, -1.31047976016998290000e+000) (144, -9.87651169300079350000e-001) (145, -6.20456159114837650000e-001) (146, -1.42629063129425050000e+000) (147, 2.59408086538314820000e-001) (148, -6.83409869670867920000e-001) (149, -6.79979085922241210000e-001) (150, 1.89184751361608510000e-002) (151, -4.29133474826812740000e-001) (152, 2.23814114928245540000e-001) (153, 1.35948583483695980000e-002) (154, -6.21739625930786130000e-001) (155, -6.47553324699401860000e-001) (156, -1.01070843636989590000e-001) (157, -7.11421549320220950000e-001) (158, -1.73613682389259340000e-001) (159, -9.09716784954071040000e-002) (160, -1.11531257629394530000e+000) (161, -1.47173035144805910000e+000) (162, -3.29855829477310180000e-001) (163, -5.18673062324523930000e-001) (164, -6.14390373229980470000e-001) (165, -5.08722126483917240000e-001) (166, 3.37870508432388310000e-001) (167, -4.88554090261459350000e-001) (168, -4.95831996202468870000e-001) (169, 6.66960626840591430000e-002) (170, -1.11058640480041500000e+000) (171, -1.61751401424407960000e+000) (172, -1.57816195487976070000e+000) (173, -6.92521393299102780000e-001) (174, -1.16088795661926270000e+000) (175, -1.03540098667144780000e+000) (176, 1.34381815791130070000e-001) (177, -1.72196239233016970000e-001) (178, -1.31378814578056340000e-001) (179, -6.38498783111572270000e-001) (180, -2.14851737022399900000e-001) (181, -1.26527056097984310000e-001) (182, 2.42937907576560970000e-001) (183, 6.06634497642517090000e-001) (184, -5.08858084678649900000e-001) (185, -7.97061026096343990000e-001) (186, 3.94981652498245240000e-002) (187, -7.76227295398712160000e-001) (188, -5.67111015319824220000e-001) (189, -4.56736236810684200000e-001) (190, 1.12717747688293460000e-001) (191, 1.71113222837448120000e-001) (192, 8.90803992748260500000e-001) (193, -8.41536093503236770000e-003) (194, -4.03533756732940670000e-001) (195, -1.11386227607727050000e+000) (196, -6.32230758666992190000e-001) (197, -6.23000502586364750000e-001) (198, 4.88763689994812010000e-001) (199, -5.14464497566223140000e-001) (200, 1.41208097338676450000e-001) (201, -1.62470802664756770000e-001) (202, -4.20662224292755130000e-001) (203, -3.24934095144271850000e-001) (204, -4.40018326044082640000e-001) (205, -3.88842850923538210000e-001) (206, -6.82504057884216310000e-001) (207, 3.02537798881530760000e-001) (208, -3.32500040531158450000e-001) (209, -1.56336396932601930000e-001) (210, -1.33731365203857420000e-001) (211, -4.72451865673065190000e-001) (212, 1.57638385891914370000e-001) (213, 1.02716982364654540000e-001) (214, -4.33067768812179570000e-001) (215, -7.88861930370330810000e-001) (216, 2.91131585836410520000e-001) (217, -1.03523030877113340000e-001) (218, -3.11507821083068850000e-001) (219, -6.97429597377777100000e-001) (220, -1.18421994149684910000e-001) (221, -2.79771864414215090000e-001) (222, -4.31897789239883420000e-001) (223, -5.52042663097381590000e-001) (224, 3.12744408845901490000e-001) (225, -1.40814006328582760000e+000) (0, 8.27674508094787600000e-001) (1, 6.39319241046905520000e-001) (2, 6.84292495250701900000e-001) (3, 9.59685802459716800000e-001) (4, 2.43133127689361570000e-001) (5, -4.59409467875957490000e-002) (6, 3.73592406511306760000e-001) (7, 5.67582786083221440000e-001) (8, 1.13805949687957760000e+000) (9, 1.85744273662567140000e+000) (10, 2.35619783401489260000e+000) (11, 6.69428825378417970000e-001) (12, 9.65816140174865720000e-001) (13, 7.15304553508758540000e-001) (14, 2.08107614517211910000e+000) (15, 9.35866117477416990000e-001) (16, 5.14858178794384000000e-002) (17, 5.76252579689025880000e-001) (18, 4.30854529142379760000e-001) (19, 9.08726215362548830000e-001) (20, 1.28494977951049800000e+000) (21, 2.30411839485168460000e+000) (22, 2.16201066970825200000e+000) (23, 2.08470106124877930000e+000) (24, 2.00867366790771480000e+000) (25, 1.81118237972259520000e+000) (26, 2.41961026191711430000e+000) (27, 8.34233462810516360000e-001) (28, 2.89555162191390990000e-001) (29, -2.76699692010879520000e-001) (30, 5.88024795055389400000e-001) (31, -2.70019769668579100000e-001) (32, -1.60786956548690800000e-001) (33, 8.05630803108215330000e-001) (34, 6.90674960613250730000e-001) (35, -2.39309072494506840000e-001) (36, 2.77549600601196290000e+000) (37, 2.74315404891967770000e+000) (38, 2.72147226333618160000e+000) (39, 9.88659620285034180000e-001) (40, 1.11775124073028560000e+000) (41, 5.37325181066989900000e-002) (42, 4.38322901725769040000e-001) (43, -6.68822601437568660000e-002) (44, 5.47914803028106690000e-001) (45, 5.66740632057189940000e-001) (46, -5.58447599411010740000e-001) (47, 3.12773704528808590000e-001) (48, 9.83536124229431150000e-001) (49, 2.10921049118041990000e+000) (50, 2.35481724143028260000e-001) (51, 2.52446937561035160000e+000) (52, 1.95663380622863770000e+000) (53, 1.24424183368682860000e+000) (54, 1.01791059970855710000e+000) (55, 5.28096377849578860000e-001) (56, 8.56642603874206540000e-001) (57, -9.95689213275909420000e-001) (58, 5.00818192958831790000e-001) (59, -8.38236212730407710000e-001) (60, 1.25397074222564700000e+000) (61, -2.73232102394104000000e-001) (62, 2.29283004999160770000e-001) (63, 5.13300836086273190000e-001) (64, 9.19757366180419920000e-001) (65, 7.07848548889160160000e-001) (66, -1.70638591051101680000e-001) (67, 1.43857109546661380000e+000) (68, 7.52826571464538570000e-001) (69, 9.94542427361011510000e-003) (70, 9.51098442077636720000e-001) (71, 6.97387695312500000000e-001) (72, 1.04177176952362060000e+000) (73, 5.69151341915130620000e-001) (74, -4.42147135734558110000e-001) (75, 1.35486423969268800000e+000) (76, 7.61997252702713010000e-002) (77, 5.28564333915710450000e-001) (78, 2.99719405174255370000e+000) (79, 2.51044893264770510000e+000) (80, 9.80262279510498050000e-001) (81, 1.73351556062698360000e-001) (82, -6.97842657566070560000e-001) (83, -6.19166493415832520000e-001) (84, 4.03196483850479130000e-001) (85, 5.04021406173706050000e-001) (86, 1.11006224155426030000e+000) (87, 1.20967674255371090000e+000) (88, -6.19518458843231200000e-001) (89, 2.84772249870002270000e-003) (90, 6.37038707733154300000e-001) (91, 2.42775574326515200000e-001) (92, 8.22356402873992920000e-001) (93, 2.12510973215103150000e-001) (94, 1.93386852741241460000e+000) (95, 2.90971130132675170000e-001) (96, -2.57600545883178710000e-001) (97, -6.49929165840148930000e-001) (98, -6.12218119204044340000e-002) (99, 2.39205688238143920000e-001) (100, 2.33663827180862430000e-001) (101, 4.20782864093780520000e-001) (102, 8.51328551769256590000e-001) (103, -1.76521558314561840000e-002) (104, 3.22302073240280150000e-001) (105, 1.12223231792449950000e+000) (106, -8.37019085884094240000e-002) (107, 1.07313752174377440000e-001) (108, 1.56370162963867190000e+000) (109, 6.35560035705566410000e-001) (110, 5.04640758037567140000e-001) (111, -3.26529622077941890000e-001) (112, -2.06101939082145690000e-001) (113, -3.33565831184387210000e-001) (114, 7.66923189163208010000e-001) (115, -1.01160490885376930000e-002) (116, 1.90964907407760620000e-001) (117, 1.09741783142089840000e+000) (118, 9.68710482120513920000e-001) (119, 2.49795317649841310000e-001) (120, 1.27355682849884030000e+000) (121, -2.76319742202758790000e-001) (122, 1.12662994861602780000e+000) (123, 1.83544397354125980000e+000) (124, 1.21531462669372560000e+000) (125, 2.58976578712463380000e-001) (126, -4.55369889736175540000e-001) (127, -1.16501584649086000000e-001) (128, -8.65505218505859380000e-001) (129, -1.78278997540473940000e-001) (130, 7.42208421230316160000e-001) (131, 1.55984267592430110000e-001) (132, 1.24274599552154540000e+000) (133, 6.36664748191833500000e-001) (134, 2.59089142084121700000e-001) (135, 8.04238319396972660000e-001) (136, -2.39142514765262600000e-002) (137, 1.09189784526824950000e+000) (138, 3.02298098802566530000e-001) (139, 1.17370820045471190000e+000) (140, -4.49602901935577390000e-002) (141, 1.31137832999229430000e-001) (142, -7.01839625835418700000e-001) (143, -1.27733576297760010000e+000) (144, -1.40714061260223390000e+000) (145, 9.43066179752349850000e-002) (146, 2.58126437664031980000e-001) (147, 3.79398077726364140000e-001) (148, -9.20672714710235600000e-002) (149, 9.72580388188362120000e-002) (150, 9.90182042121887210000e-001) (151, -4.68345046043396000000e-001) (152, 8.57747733592987060000e-001) (153, 1.35191881656646730000e+000) (154, 2.87333059310913090000e+000) (155, 1.20196259021759030000e+000) (156, 4.19436484575271610000e-001) (157, -4.87489193677902220000e-001) (158, -3.05427789688110350000e-001) (159, 2.17272996902465820000e-001) (160, 3.20170193910598750000e-001) (161, 1.55431106686592100000e-001) (162, 9.61723327636718750000e-001) (163, 4.63485121726989750000e-002) (164, -3.03946167230606080000e-001) (165, 6.83384180068969730000e-001) (166, 3.10460716485977170000e-001) (167, 8.57841312885284420000e-001) (168, 1.33605384826660160000e+000) (169, 2.62885737419128420000e+000) (170, 3.28214317560195920000e-002) (171, 1.07338154315948490000e+000) (172, 1.97627544403076170000e-001) (173, 1.02377068996429440000e+000) (174, 2.36981689929962160000e-001) (175, 8.50955545902252200000e-001) (176, 6.70306742191314700000e-001) (177, 6.89853906631469730000e-001) (178, 2.12928727269172670000e-001) (179, 3.71744811534881590000e-001) (180, 1.53914645314216610000e-001) (181, 7.02448412775993350000e-002) (182, 2.74877518415451050000e-001) (183, 1.27451896667480470000e+000) (184, 2.15268945693969730000e+000) (185, 1.51842844486236570000e+000) (186, 1.16962027549743650000e+000) (187, 8.31129610538482670000e-001) (188, 7.94951260089874270000e-001) (189, 1.63375663757324220000e+000) (190, 3.13113331794738770000e+000) (191, 9.20682609081268310000e-001) (192, 1.85755640268325810000e-001) (193, -3.00763882696628570000e-002) (194, 3.21062892675399780000e-001) (195, 1.59177690744400020000e-001) (196, -2.28318452835083010000e-001) (197, 3.52443009614944460000e-001) (198, 7.27759003639221190000e-001) (199, 1.78547716140747070000e+000) (200, 6.76696956157684330000e-001) (201, 1.01309239864349370000e+000) (202, 7.49850451946258540000e-001) (203, 9.88223671913146970000e-001) (204, 7.27989912033081050000e-001) (205, 1.50822150707244870000e+000) (206, 2.83623290061950680000e+000) (207, 8.24081361293792720000e-001) (208, 6.46548569202423100000e-002) (209, 6.75017118453979490000e-001) (210, 2.15448841452598570000e-001) (211, 3.61168198287487030000e-002) (212, 2.39655494689941410000e-001) (213, 1.53800606727600100000e-001) (214, 2.17052626609802250000e+000) (215, 1.97191977500915530000e+000) (216, 1.08529400825500490000e+000) (217, 2.08674550056457520000e+000) (218, 5.57635927200317380000e+000) (219, 5.56101465225219730000e+000) (220, 1.97188866138458250000e+000) (221, 2.13958334922790530000e+000) (222, 1.28469598293304440000e+000) (223, 3.13724309206008910000e-001) (224, 7.37673640251159670000e-001) (225, 1.28868734836578370000e+000) (0, 1.48549124598503110000e-001) (1, 4.74357992410659790000e-001) (2, -3.50661844015121460000e-001) (3, -2.15152919292449950000e-001) (4, -2.62851059436798100000e-001) (5, -6.37003540992736820000e-001) (6, -8.65818679332733150000e-001) (7, -6.23019039630889890000e-001) (8, 4.90059517323970790000e-002) (9, -4.23819988965988160000e-001) (10, 9.65762883424758910000e-003) (11, -8.94650518894195560000e-002) (12, 2.21290960907936100000e-001) (13, 8.81568074226379390000e-001) (14, 7.86837577819824220000e-001) (15, -1.19138650596141820000e-001) (16, 4.83550310134887700000e-001) (17, 6.97924494743347170000e-002) (18, -5.58565378189086910000e-001) (19, -4.67141270637512210000e-001) (20, -3.32564175128936770000e-001) (21, 1.93241238594055180000e-001) (22, 1.69335365295410160000e-001) (23, -3.54993224143981930000e-001) (24, 3.28151702880859380000e-001) (25, 2.37327903509140010000e-001) (26, 2.62006103992462160000e-001) (27, -3.06349813938140870000e-001) (28, 2.38998964428901670000e-001) (29, -2.19826456159353260000e-002) (30, 6.84268176555633540000e-002) (31, -1.42624661326408390000e-001) (32, -2.09007680416107180000e-001) (33, 6.76586031913757320000e-002) (34, -9.58739221096038820000e-003) (35, -7.42458626627922060000e-002) (36, 5.33136904239654540000e-001) (37, 1.48056983947753910000e-001) (38, -2.28506520390510560000e-001) (39, 4.71199214458465580000e-001) (40, -3.23813974857330320000e-001) (41, 2.71083563566207890000e-001) (42, 1.60253554582595830000e-001) (43, 3.03483247756958010000e-001) (44, -3.82004491984844210000e-002) (45, 6.14685893058776860000e-001) (46, 1.33671000599861150000e-001) (47, -2.47482433915138240000e-002) (48, 3.73366713523864750000e-001) (49, 8.76667439937591550000e-001) (50, -1.99768230319023130000e-001) (51, 4.59907263517379760000e-001) (52, 5.03321876749396320000e-003) (53, 4.63891059160232540000e-001) (54, 6.80381134152412410000e-002) (55, -1.57887971401214600000e+000) (56, -1.80559372901916500000e+000) (57, -2.48390126228332520000e+000) (58, 1.16539224982261660000e-001) (59, -2.47955894470214840000e+000) (60, 6.96429967880249020000e-001) (61, 1.43763720989227290000e-002) (62, 4.58979725837707520000e-001) (63, 6.27309143543243410000e-001) (64, 5.25631785392761230000e-001) (65, 2.63500809669494630000e-001) (66, -3.73633652925491330000e-001) (67, 5.38300164043903350000e-002) (68, 7.07773804664611820000e-001) (69, -1.74484655261039730000e-001) (70, -1.22717469930648800000e-001) (71, 4.42865431308746340000e-001) (72, -1.74814462661743160000e+000) (73, 3.61147850751876830000e-001) (74, -1.92762243747711180000e+000) (75, 4.67197090387344360000e-001) (76, 4.98603343963623050000e-001) (77, 1.61975175142288210000e-001) (78, 9.96205866336822510000e-001) (79, 6.79545402526855470000e-001) (80, 4.51533719897270200000e-002) (81, -3.70521396398544310000e-001) (82, -1.72103297710418700000e+000) (83, -1.15820348262786870000e-001) (84, -8.12906265258789060000e-001) (85, -4.73432332277297970000e-001) (86, 2.51909208297729490000e+000) (87, -2.16116309165954590000e-002) (88, -8.42947661876678470000e-001) (89, -1.05816829204559330000e+000) (90, -5.48298470675945280000e-002) (91, 4.14052248001098630000e-001) (92, 4.10256922245025630000e-001) (93, -5.23983359336853030000e-001) (94, 4.17527019977569580000e-001) (95, -1.50396957993507390000e-001) (96, 5.56472837924957280000e-002) (97, 2.32222795486450200000e+000) (98, 2.44782209396362300000e+000) (99, 1.93717796355485920000e-003) (100, -3.36654365062713620000e-001) (101, 2.03180998563766480000e-001) (102, 6.70750379562377930000e-001) (103, -1.25629529356956480000e-001) (104, -3.28371673822402950000e-002) (105, 6.39761149883270260000e-001) (106, -2.06716254353523250000e-001) (107, -3.53967815637588500000e-001) (108, -3.35010766983032230000e-001) (109, -1.92021921277046200000e-001) (110, -8.79453063011169430000e-001) (111, -1.00901150703430180000e+000) (112, -1.67236030101776120000e+000) (113, -9.30439233779907230000e-002) (114, -3.36370021104812620000e-001) (115, -5.95418810844421390000e-002) (116, 4.56479251384735110000e-001) (117, 3.03362339735031130000e-001) (118, -7.72216141223907470000e-001) (119, -8.52643921971321110000e-002) (120, 5.07897615432739260000e-001) (121, 6.03645086288452150000e-001) (122, -1.16626001894474030000e-001) (123, -8.62027704715728760000e-001) (124, -1.71865910291671750000e-001) (125, -8.57800960540771480000e-001) (126, -5.59420526027679440000e-001) (127, -8.80051791667938230000e-001) (128, -1.25558876991271970000e+000) (129, -5.04284858703613280000e-001) (130, -3.59409689903259280000e-001) (131, 7.36744523048400880000e-001) (132, 6.27997875213623050000e-001) (133, -3.14813822507858280000e-001) (134, -7.09557294845581050000e-001) (135, 2.49285653233528140000e-001) (136, 2.49628439545631410000e-001) (137, -1.83081626892089840000e-001) (138, 2.21068456768989560000e-001) (139, 5.34505248069763180000e-001) (140, 4.09849673509597780000e-001) (141, -4.92949962615966800000e-001) (142, -4.37369555234909060000e-001) (143, -7.43772447109222410000e-001) (144, -5.69212377071380620000e-001) (145, -6.60194933414459230000e-001) (146, -9.27309878170490260000e-003) (147, -8.55754733085632320000e-001) (148, -7.48706519603729250000e-001) (149, -1.33004650473594670000e-001) (150, -4.96003404259681700000e-003) (151, 1.46882534027099610000e-002) (152, -7.45397090911865230000e-001) (153, 4.52786892652511600000e-001) (154, 8.43747019767761230000e-001) (155, 3.31511408090591430000e-001) (156, -4.51010406017303470000e-001) (157, -1.25441908836364750000e+000) (158, -5.82455015182495120000e+000) (159, -8.11744809150695800000e-001) (160, -8.14950883388519290000e-001) (161, -3.43750864267349240000e-001) (162, -9.14154589176177980000e-001) (163, -1.63503095507621770000e-001) (164, -9.35974419116973880000e-001) (165, 6.82707190513610840000e-001) (166, -7.01708048582077030000e-002) (167, -4.50139194726943970000e-001) (168, 4.10255730152130130000e-001) (169, 1.15073192119598390000e+000) (170, 4.60418432950973510000e-001) (171, 5.00524103641510010000e-001) (172, 2.46615409851074220000e-001) (173, 1.21780484914779660000e-001) (174, 1.91787686198949810000e-002) (175, -4.64417338371276860000e-002) (176, 2.23441511392593380000e-001) (177, -8.51213574409484860000e-001) (178, -2.80573815107345580000e-001) (179, -1.81720510125160220000e-001) (180, 5.42738497257232670000e-001) (181, -6.08931303024291990000e-001) (182, -2.34206646680831910000e-001) (183, 8.09281587600708010000e-001) (184, 1.44468232989311220000e-001) (185, 4.26525145769119260000e-001) (186, 4.35845613479614260000e-001) (187, 6.04763209819793700000e-001) (188, 9.56970930099487300000e-001) (189, 1.09045588970184330000e+000) (190, 2.55723685026168820000e-001) (191, 9.87432777881622310000e-001) (192, -7.54546821117401120000e-001) (193, -4.51703250408172610000e-001) (194, -3.01871508359909060000e-001) (195, 3.17245602607727050000e-001) (196, -9.94631052017211910000e-001) (197, 9.99646633863449100000e-003) (198, -5.51450192928314210000e-001) (199, 4.63058441877365110000e-001) (200, -2.92166918516159060000e-001) (201, 2.27397605776786800000e-002) (202, 4.75083053112030030000e-001) (203, -1.54141083359718320000e-001) (204, -3.42829465866088870000e-001) (205, -4.05825912952423100000e-001) (206, 2.96329885721206670000e-001) (207, 1.80417038500308990000e-002) (208, -1.69496297836303710000e-001) (209, -7.26700127124786380000e-002) (210, -1.40686854720115660000e-001) (211, 2.66921043395996090000e-001) (212, -5.77469229698181150000e-001) (213, -5.54733097553253170000e-001) (214, -4.10997301340103150000e-001) (215, 8.12763646245002750000e-002) (216, 4.90464657545089720000e-001) (217, 2.11268529295921330000e-001) (218, 4.59708243608474730000e-001) (219, 2.37243428826332090000e-001) (220, 2.21961200237274170000e-001) (221, -1.30604431033134460000e-001) (222, -6.60319149494171140000e-001) (223, -2.16906040906906130000e-001) (224, 9.09912109375000000000e-001) (225, -1.25718164443969730000e+000) (0, 1.24973632395267490000e-001) (1, 5.03496348857879640000e-001) (2, 1.02177575230598450000e-001) (3, -9.78772267699241640000e-002) (4, 7.73128926753997800000e-001) (5, 2.84192442893981930000e-001) (6, -2.03537903726100920000e-002) (7, -3.49700570106506350000e-001) (8, -2.03676730394363400000e-001) (9, -3.77082914113998410000e-001) (10, 1.35501384735107420000e-001) (11, 9.72693040966987610000e-002) (12, 2.70233601331710820000e-001) (13, 9.65446650981903080000e-001) (14, 2.49099299311637880000e-001) (15, 1.06198400259017940000e-001) (16, 3.67048203945159910000e-001) (17, -2.28080093860626220000e-001) (18, 2.28698849678039550000e-001) (19, 2.77021020650863650000e-001) (20, 3.78612190485000610000e-001) (21, -1.03549860417842860000e-001) (22, -1.64993986487388610000e-001) (23, -3.64871263504028320000e-001) (24, -5.40111303329467770000e-001) (25, 2.29239940643310550000e-001) (26, 6.95315420627593990000e-001) (27, 1.07594764232635500000e+000) (28, 7.09485888481140140000e-001) (29, -4.37195092439651490000e-001) (30, 8.60109090805053710000e-001) (31, 5.24836242198944090000e-001) (32, 7.76436090469360350000e-001) (33, 4.71265792846679690000e-001) (34, 1.25979214906692500000e-001) (35, 8.34157392382621770000e-002) (36, -3.12149733304977420000e-001) (37, 4.09450203180313110000e-001) (38, -2.69124418497085570000e-001) (39, -3.71648252010345460000e-001) (40, 3.66070032119750980000e-001) (41, 1.20604109764099120000e+000) (42, -9.74497422575950620000e-002) (43, 5.33341383561491970000e-003) (44, 4.24532979726791380000e-001) (45, 1.17010712623596190000e+000) (46, 5.80569446086883540000e-001) (47, 5.50857558846473690000e-002) (48, 4.44780617952346800000e-001) (49, 1.62926584482192990000e-001) (50, 4.25981283187866210000e-001) (51, -4.63507950305938720000e-001) (52, -9.79650735855102540000e-001) (53, -6.29692316055297850000e-001) (54, -5.67440748214721680000e-001) (55, -4.45554375648498540000e-001) (56, -6.17192327976226810000e-001) (57, 4.48223389685153960000e-003) (58, -2.45434284210205080000e+000) (59, -7.69547820091247560000e-001) (60, 1.57836008071899410000e+000) (61, 5.91766059398651120000e-001) (62, 1.46035961806774140000e-002) (63, 8.10437127947807310000e-002) (64, -4.78445559740066530000e-001) (65, 9.12632271647453310000e-002) (66, -5.86194932460784910000e-001) (67, -7.35884532332420350000e-002) (68, -7.46766924858093260000e-001) (69, 1.54176786541938780000e-001) (70, -3.12675863504409790000e-001) (71, 4.62672621011734010000e-001) (72, -8.16752493381500240000e-001) (73, -2.77845001220703120000e+000) (74, -4.53268915414810180000e-001) (75, 1.54651701450347900000e+000) (76, 5.79789757728576660000e-001) (77, 1.08012080192565920000e-001) (78, -9.15329307317733760000e-002) (79, -5.65585494041442870000e-001) (80, -1.67833849787712100000e-001) (81, -1.91319024562835690000e+000) (82, 4.98781299591064450000e+000) (83, -1.24780237674713130000e-001) (84, 5.04139065742492680000e-002) (85, 8.97480428218841550000e-001) (86, 3.77572178840637210000e-001) (87, 7.59079933166503910000e-001) (88, -2.15506625175476070000e+000) (89, -5.82624733448028560000e-001) (90, 8.24760973453521730000e-001) (91, 5.54090678691864010000e-001) (92, 6.18873596191406250000e-001) (93, -3.05188059806823730000e-001) (94, -6.28720939159393310000e-001) (95, -5.24333000183105470000e-001) (96, -2.06175491213798520000e-001) (97, -7.20635235309600830000e-001) (98, -1.40543317794799800000e+000) (99, -3.50718140602111820000e-001) (100, -1.84124425053596500000e-001) (101, 2.77189970016479490000e-001) (102, 3.82460892200469970000e-001) (103, -1.21501243114471440000e+000) (104, 3.78869116306304930000e-001) (105, 8.07701051235198970000e-001) (106, 2.26615116000175480000e-001) (107, 1.64464637637138370000e-001) (108, 3.59252452850341800000e-001) (109, -1.27983972430229190000e-001) (110, -6.30123913288116460000e-001) (111, -1.01186192035675050000e+000) (112, -7.58115053176879880000e-001) (113, -9.66309070587158200000e-001) (114, 1.61525219678878780000e-001) (115, 1.66617333889007570000e-002) 